function [Y,Xf,Af] = myNeuralNetworkFunction(X,~,~)
%MYNEURALNETWORKFUNCTION neural network simulation function.
%
% Generated by Neural Network Toolbox function genFunction, 30-Sep-2016 16:59:17.
%
% [Y] = myNeuralNetworkFunction(X,~,~) takes these arguments:
%
%   X = 1xTS cell, 1 inputs over TS timesteps
%   Each X{1,ts} = 80xQ matrix, input #1 at timestep ts.
%
% and returns:
%   Y = 1xTS cell of 1 outputs over TS timesteps.
%   Each Y{1,ts} = 5xQ matrix, output #1 at timestep ts.
%
% where Q is number of samples (or series) and TS is the number of timesteps.

%#ok<*RPMT0>

% ===== NEURAL NETWORK CONSTANTS =====

% Input 1
x1_step1.xoffset = [0;0;-3.1641424465916;-3.8773322301709;0;0;0;-1.99623279046905;-2.36498180602058;0;0;0;-3.75551359606774;-3.55119593615643;0;0;0;-2.35635321094935;-2.29510274864788;0;0;0;-3.90836362591999;-3.38633370632593;0;0;0;-2.18979323109161;-2.1800092820377;0;0;0;-3.75775983073663;-3.76811598132797;0;0;0;-2.15063317488859;-2.19614271777547;0;0;0;-3.31843442542634;-3.63762271376172;0;0;0;-2.03268139611498;-2.16914748781319;0;0;0;-3.08120236208026;-3.5165352152641;0;0;0;-1.98895083274001;-2.02448068876329;0;0;0;-2.72670691582188;-3.83844540519447;0;0;0;-1.83579357900562;-2.07641487539183;0;0;0;-2.84979200500869;-4.11765562624453;0;0;0;-1.80023058128383;-2.26802196789445;0];
x1_step1.gain = [0.0111414017972474;0.0320221321194966;0.293556852502132;0.250302744596698;0.475078509721538;0.0113053931141324;0.0284465793489605;0.459469688252955;0.415886388957576;0.794098058464423;0.0107842509495196;0.0343267739724562;0.284646346749965;0.272920495034218;0.488565453734864;0.0115112468478969;0.0289349116054902;0.459374764214212;0.436415039078341;0.783726887499773;0.0106999434909234;0.0371337660383385;0.272821214767917;0.275084642983803;0.498368289375203;0.0111273191332514;0.03128016895005;0.469367930217343;0.444423531515434;0.860131575980329;0.0106231471737449;0.0385174587999633;0.297959071269379;0.298208595020268;0.522575829329385;0.0108870199504641;0.0328245533838641;0.482673756180648;0.488649525890595;0.894669431348243;0.011244206598241;0.0394240728465126;0.321524380083823;0.297216357304728;0.543810372607823;0.0114993850524165;0.0339200170985616;0.536763779048597;0.480573949434275;0.909480549819473;0.0111818518544402;0.0372926517059743;0.314266055644319;0.2921917651032;0.556031446671273;0.0118183883042275;0.0329289705805879;0.497955701713803;0.500841682160661;0.899485592686345;0.0119255250957769;0.0335834916555211;0.306657626590953;0.302221253831416;0.495950676721593;0.0121888510103415;0.0327159472983056;0.4935248796751;0.517705100174735;0.875259542892042;0.0107284985801503;0.0314515251959066;0.295865789835261;0.253146941398312;0.458803905422693;0.0109446984906577;0.0286558662353556;0.471472827953739;0.431424592003412;0.784737737026093];
x1_step1.ymin = -1;

% Layer 1
b1 = [-1.4934427741147706659;-1.4310534091977764604;-1.4417711337878165168;1.3747851519640277296;-1.400422893157554638;1.3506653628222451413;-1.3615206978881158051;1.3853761764392547029;-1.3674678983150234668;1.2909666471185867742;-1.3140928947383665459;1.1952750665824345422;-1.180323175233411348;-1.1673493049813541411;-1.1107554936904759924;-1.0010252511968593669;1.1594069722239181974;-1.0456441647007967966;0.98676882250226072291;1.0579312139938201742;0.90865705182241340854;-0.94564874431052570181;1.0384926644262046924;0.90973630973678920597;-0.9548671554006039619;0.84883498291779879708;0.75218778491296567346;0.66587410729749696436;0.7355090775156725158;-0.89177358174972487515;-0.76250923074064314022;-0.70212908439879262446;0.64349922457047281643;-0.66210934116388631132;0.72370587043348266754;-0.57547745184517740125;0.51541892600485916809;-0.4457793523481684006;0.62224831240645850361;0.55630930467122230443;0.40618793218916532384;0.55312635454881142749;0.54076385274074245668;0.48963043777979869953;-0.32120560349990034954;-0.22720362265612287223;-0.34119419065039624517;0.3572668216492594917;-0.36618153413068843527;-0.47145513530899613164;0.28327612512856348292;-0.26276795638149763601;-0.21140200564938688155;-0.22206510615869470837;-0.11647985043553599205;-0.31133821617784085412;0.029405488155088459895;0.050692835931781761449;0.094238447140742226393;-0.11765531825107868047;-0.12213035846904367332;-0.070115688521065200334;-0.081122490386722576061;-0.067855148974389128957;-0.10404085043323413329;-0.030821120415075373838;0.26193593830873784789;0.18519526575011435732;0.15618656564720304059;0.14508614758394675071;-0.24930352141671985322;-0.42619911518565373187;-0.2347619684167142895;-0.37075891638551544682;-0.50108066871928758079;-0.35811018395976795814;0.45774392090339366401;0.4582647562392364593;0.46938501821155470539;-0.50535991680798564296;0.57172941139742472494;0.52420308115638414304;-0.65579301091798880563;0.70666570165807229831;-0.60955275205326719945;-0.54146929791511588803;0.68137925292773959818;0.64152523973551822678;-0.73222717280415028362;0.90045665978014377551;-0.74760691418862634805;0.7573032689180048127;-0.94052535594006303477;0.8747656075177479007;0.81807885781377387424;-0.87269732006327893625;-0.86429069136264313755;-0.98958109793618287409;0.94868561641602655587;0.90005651249736329245;-1.0644714231615846067;-1.0155810557847233522;0.99113275385450483324;-1.0526099876445351722;1.0681191666811191698;-1.1810786249510030199;-1.2271259053124135008;1.2230853859324610777;-1.1843237756845796937;1.2057446379912657441;-1.2730340821485861547;-1.2901482735548026604;-1.2505028924782628508;1.3623527591183453023;1.3103537351844276593;-1.4237717475695423897;-1.4243397739275038827;-1.4152572795718714183;1.4866601751651788987;1.4619019707329592439];
IW1_1 = [0.24044297845457149321 -0.19834021770307702637 0.26061399629503501085 0.053232398541117061097 0.12966287630856765389 0.031556972689027795731 -0.15980466222333150617 -0.23369361927159668091 -0.064655729394596031523 0.26134596003700638622 0.25156239663802082429 -0.099372744899993634138 -0.076070086220176011405 0.09538688701283812299 -0.1055517795810645143 0.15044763786012690931 -0.038096904813270410228 0.10544214877061304503 -0.22891204086276736862 0.15388217928124364731 0.17684808035440124918 -0.22044496340266173107 -0.036738163255459956036 0.0078734366302797269971 0.057829403204796653304 0.13251931132504879418 -0.23724672598587337458 -0.22106265387768286867 -0.22497419972493390428 0.065543717794889475026 0.24982514573269476443 -0.10334174158512139663 0.040797565189579242106 -0.25472953061134340214 -0.038468346161675028017 0.1049752139772710674 -0.023674365060655226667 -0.25157759195663303986 -0.18906018922342518462 0.11811268655902257274 0.19788899046626479139 0.27003730606046610907 0.002897463074596624312 -0.24641341868160090978 0.20477551687673592462 -0.021191946727246547405 0.00039764765821988191583 -0.16713866677056163357 -0.19610412237147739623 -0.0076792081674352330803 0.17280253114747942678 0.043449358791941894431 0.060008436014640571809 -0.26780330217060793752 0.25593152349068254425 -0.053927825857770936291 0.10555338958934991356 0.25029036050518332912 -0.23156087864876323534 -0.091412681158586556185 -0.15525579035318673449 0.037715047701458136176 0.13265354653378383376 0.15075582124134934148 -0.21822806616718035122 -0.26340460018049594026 -0.18733573595937372258 -0.13117623916546705676 -0.12901488723429713201 0.026353251292492874819 0.032579364988332686071 -0.17245246824887167092 0.060947124234610024207 0.1799797484402369252 -0.16259230305089641955 -0.15768243182963151416 0.25539846168755303557 -0.13820459668791953978 0.020939052687256126672 0.27379444948476683308;0.16325130092521408787 0.032747265211916724847 0.081230677743986054451 -0.068510939616098220917 0.14254993299449475463 -0.10707923590282936166 0.0027907226958191256629 0.071687192658745249596 -0.0099474699146032147939 0.2388973232275964087 -0.22331394518840474994 -0.0094902410901001894167 0.17008906555550271089 -0.25644941922973218951 -0.025606646919742948737 0.10318737553430662457 0.24219514793054408575 0.0028635677850347503355 -0.042775479707080732439 0.20554355585859987454 0.035023931732982412079 0.17657839752626050545 0.19506320842206925636 -0.18156972536676430074 -0.23540577710630070096 -0.19548306702213849584 0.0094556206553791932734 -0.22989926241617592018 -0.23806573095151731256 -0.25730630210088084597 -0.023129549774189083616 -0.10633088651579446215 -0.20717584637628028155 -0.18840771038299575224 0.25743291152188396698 -0.21748043397196509252 -0.16810302951482225531 -0.072629839726922496013 -0.21529970219329203074 -0.18916420668048503084 -0.25470916639702240181 -0.22840729298452761009 -0.15652776366678416986 -0.065587363694715072882 0.086839706287586762579 0.18479040554499442939 -0.10904766459764522746 0.052149700596412655595 0.2573899876491057559 -0.029923907841292153587 0.13690072022138319308 0.182712321647232806 0.093530797744291710449 -0.18229862789802225853 -0.24106785725620430427 -0.19858387809607883079 -0.090655342859977172676 0.14654822048935103873 -0.18901026277460455938 -0.11753134166386371151 0.20466073927620095918 0.24125536444089215604 0.26768059270639144032 0.094342029530115847913 0.15616411513582026394 -0.015377740855623947547 0.034437495735023859744 -0.22321778148815091258 -0.13940388172263884492 -0.10540031817510908674 0.076990568660931540945 0.10318129424641056535 -0.25593610004188671603 -0.2610503885987962569 0.23086138626646929284 0.0018027911371927374078 0.24944180059537754413 -0.0091882247184378578603 0.059346500212774856708 -0.24539702019324327598;0.35607280216318132338 0.064034090716051900172 0.12452993313957465282 -0.017834812774158062543 -0.14899389799363652043 -0.028155613720265756234 -0.029373353167322757695 0.16570396939126638691 0.30676536534676857038 -0.0076615504116385605218 -0.26618548110068546153 -0.10278894836538012003 0.098510309442631144305 -0.084643198573634462201 -0.07083711102769423007 0.024021085043078406474 -0.14809214587390884255 -0.16910633480365308556 -0.26328432867717704857 0.069570476148572077402 -0.0039442315774852378801 -0.23485539923268658469 0.27053115001563105002 0.10626828562145319845 -0.23229827390485338623 0.096101169819924850413 -0.11208494092860374347 0.12737860878154261268 -0.061125394723387960205 -0.14771808154920990086 0.16492052181743607764 -0.22596385783049011131 0.10563144325864919082 -0.13138254914348040936 0.2705095786852302342 -0.097153908060364113641 0.12440531302510000888 0.12005502445218790841 0.25842903596664312804 0.22717256643483643708 0.15824637022934273656 -0.042155891794989505672 -0.03971726554038902679 -0.28041028370207943254 -0.20465905573241524595 -0.19371849245642266957 -0.26001113346974558116 0.064025646155796853143 -0.12473583292435179437 -0.21418817654491908997 0.28723356011601963722 -0.13902618576185971078 -0.28185521403458069223 0.1521342655344324335 -0.15326024794707321375 -0.07965071921228980556 -0.027027053648738912084 -0.066610237254329254797 -0.10764376535063240048 0.18221638261907441292 0.25900646872333388249 0.030194899588267355706 0.17552110720580307857 0.20107470308063166153 -0.091464900740748172892 -0.31044365635678367044 -0.052200589903818192528 0.08542001662607769108 0.30274836936519966546 -0.070447702637289791316 0.084044093475103776036 -0.081824197492787575925 -0.27081491517045686024 -0.16023559641024570643 0.02865478127610669376 -0.11639329403967826893 -0.057920525282101426034 -0.28625246961215838892 -0.0043862320069299022898 -0.072316635298579276525;-0.12101661894423092203 0.13694769628903341596 -0.21709539129223817677 -0.040987397734328530341 0.10742708401744804902 0.090256058374981032455 -0.2434906757636186303 -0.12753906251020799556 0.27126871204240526891 -0.17913273181199942941 -0.13015187995065471971 -0.2830290613137039224 0.21525954774134162251 -0.011740817558783962424 -0.067551767965888701029 -0.26923253430160765109 0.032682063823477165709 0.11666833697222582511 0.0044035601345681664454 -0.054776240277258768374 0.18763145333462707964 0.22891199728188721396 -0.023433424234338133541 -0.1882349659198643832 -0.27605906254839246428 -0.10280237899846580985 -0.23586785161343834516 0.1178607449515661626 -0.097645123069167366614 0.090037610980768040259 -0.1846653685791040389 0.24810658367706078797 0.002704425497865883387 0.1078371649497483209 0.16358118050873990401 -0.20751283612161311454 -0.062546008308243222773 -0.10645601385815965656 0.0087883508443671928129 0.23074989038573526234 0.21131336396264432942 -0.067636677793749364063 0.0071537794908393672819 0.17244123168781058664 0.14965658895841685294 -0.024530570489724744937 -0.055219958689980183641 -0.26505831888518788242 -0.084429095320297742333 -0.2290065788088506693 -0.11687833260691901649 -0.19941039778883357103 0.18230708775922893627 -0.036934059774792991904 -0.28991149213572781074 -0.2250973187691391042 -0.22566815796319286691 -0.22517801864387906874 0.28626771494198605117 -0.066264983789208753429 0.28759094247886424212 -0.09252493797366219408 -0.27533753688711892771 -0.12091178441367875229 -0.20574184128123629289 0.0095372272157434202083 0.24244917250376854523 -0.10726112752492159008 -0.21676579253374239631 -0.089420808062001061467 -0.016046150276903831805 -0.21381814109130226065 0.029651725166044570758 -0.076859960335658686348 -0.23826154809631561182 0.12509016983339929507 -0.18019282902635805343 -0.011561101991004477108 0.063553995748211494776 -0.14633864939910853908;0.24067805386253676714 -0.049346149358839949683 0.26093041634376784588 0.060645621255482756728 -0.071718539497420588646 0.15928207381503864393 -0.20759945008482538764 -0.11133931517037716497 0.1360978522325586304 0.14670862344061505467 0.14892841183317073739 0.19490181868857572867 0.28271718636936893354 0.034810520338874502422 0.0066285368749547362438 -0.14195678378872103598 0.14210181644982497473 0.31207151933796045684 -0.2191652012417391604 -0.26917527987734890527 -0.25888177336276457785 -0.23051505664370838811 0.019641550486536877435 -0.14263975093073769096 -0.0025122785590795835772 -0.16135505367274777244 -0.18983168178952747329 0.02334642614158375859 0.16763573066892722974 -0.29064962701918412025 -0.27906658039702764151 -0.24765048318465784916 -0.27510673987731165679 -0.16426099032841462444 0.1519099070435728227 0.24989303509694260619 -0.22604742235116612181 0.19611130498983886383 -0.27617480493526908036 0.20797854286415595748 0.0067808695248119440352 -0.15190187752718933845 -0.27676101893420401723 0.018183246335475990868 -0.07473054753526045535 -0.12063289811710584121 0.11718842168639741208 0.013956335934150885386 0.16089647862763384323 -0.28739618718726167579 -0.13450907056303906817 0.023189536153748212255 -0.2351445859625122814 -0.14009245522410349039 0.16167488126969004059 -0.25325412724629858818 -0.11531367588991962847 -0.31716327871083477286 0.16881505880277566933 -0.21174565444297507866 -0.27910251717250489367 -0.0090540469984257878483 0.069928825075144807055 0.0017362828012657857257 0.041997363444156644852 -0.042025637158530353144 -0.04372103340938360283 0.053815531290397775055 -0.042806640034442733356 -0.17306732499642424328 0.25139863473956031159 -0.21124362130824847483 -0.07988346779702934497 -0.06645077510811557564 0.27716617494912682007 -0.12185359277623039609 -0.022811393316141136828 0.144348746201234307 0.25869299651412402952 0.062916256139700560412;-0.29667728514114743987 -0.2373125993048883775 0.061290226544359553695 -0.0087096393733587778446 0.12830113459350980798 0.045510472774778723548 0.044572688886851632994 -0.090146213302048194826 0.25029551875173638997 -0.22677937668441713881 -0.20470715613356627038 0.13520781655378433239 -0.07133177225561555812 -0.032972881981049216582 0.10276760657951389266 0.21812091021693788551 0.066812250291708730199 -0.11222787954633771379 -0.11793455809928475586 -0.036963692219305704922 0.25684160860286070482 -0.21344331780826908407 -0.19327875389418394669 0.25777610749351848041 0.15393616131556595028 0.22307962429068639576 0.064568118971737323286 0.24285782769909236567 -0.2182377168973322068 0.13574943403146622067 0.10787181065005775615 -0.072920023530577804394 -0.23761929523478433901 0.016277213535009063539 0.22140831699881299843 0.10035627872585922704 -0.11276203903767979819 -0.11499492835811128688 0.06969091996832244007 0.16307483843800929524 0.17833598562543043209 0.1703373805892925974 0.13934520910427858342 -0.19216085845990055203 0.20130609201193905289 0.17416173020753550338 -0.25683060834042081844 0.095341880794163461066 -0.16490679453159517998 0.11247676914642097679 0.23438276863189144716 -0.051986233896653001596 -0.16400783388761303039 -0.078166481139485100016 0.10815201184062847584 0.069714389774850962778 -0.24565188025622755608 -0.22426048864555009343 0.1326114088683428005 -0.039347820523699193751 -0.097025794600332684881 -0.28633603588696926456 0.25660948493206797716 -0.23123120533005531163 0.24868758166268473131 -0.31730083248868956591 -0.28057211625669981059 -0.048780035471127428104 0.15331374762010449575 -0.025043698668288993242 0.12585704421158550037 -0.21400893030235676462 -0.15808690166507594066 -0.019946496668910178307 -0.21814801594417659869 -0.0014601156228569145933 0.17839024549283746812 -0.032246830970292149343 -0.27964590609994849357 0.10928093830805389597;0.063429845015541594377 0.08663527471504364752 0.23262779725475332682 0.1811343786040037207 0.22162869897717393797 -0.14735025390499145725 -0.031272811588351573375 -0.07416164150124684995 -0.25896518377857091764 0.015361676910011628008 0.032525983490812711285 -0.13853997528182257493 -0.27970202625644186023 -0.094948787005992199561 -0.091282097923056360056 -0.31005207605388934722 0.095918036898353667419 0.058310136651186478263 0.15650604638852191886 0.19957898246677432952 -0.044198839970058780013 0.023519419600366329309 -0.024996001551263181267 -0.23568555283364156505 0.21434206898454039036 0.2038258082221686418 -0.19747149559033300159 -0.012005665833307928303 0.23618823692037041462 -0.22583299039297147215 0.14118877481199937352 -0.24638417057820760636 0.23017622203699192318 -0.1918294173410304837 -0.21341918600663892236 -0.072248286108856391019 0.10967313264292077868 -0.07776270039188661054 -0.17174182640092189311 -0.081535080903976958622 -0.19837467003599620896 -0.20491096495752569862 -0.045721372330922903371 -0.086440315628273173276 -0.27576110514883295233 -0.29040007644274429266 -0.19054360371468057056 -0.19380215521071703089 0.027276676064258115889 0.15445575437359868043 -0.10256484405037970264 0.053185888167275867378 0.023604025216314206831 -0.23922501731077691622 -0.16303569835331591098 -0.067647051166292673785 0.27255223300898162586 0.17378242526653484012 0.070671638199483216569 0.010853777266431238399 0.060042132540400264262 0.22451470136532916677 -0.049721037206055321289 -0.065896405915554082111 -0.16595421508805091593 0.084554969915953778758 0.043851720121138526576 -0.10627262964361403053 0.10932196680059468041 0.15237547420478672611 -0.044005436535553991984 0.27432992866721600533 0.15901081206651468403 0.2437316642165361924 0.19162501177483814985 0.12457814934773374371 0.2733185759927013736 0.14018101403556298967 0.24606570832898230772 0.14398378013951285137;-0.12826111340185522569 0.30446199749886815322 0.052447308612183149434 0.063553070540404654754 0.10568129271267419356 -0.22592275739716530247 0.29824805996705744393 -0.12238713699273585933 0.25540132915101998456 0.16912344889265545911 -0.28623713969729208673 -0.1362714754161195585 -0.088397731511837857044 0.22270745175677297834 0.11291098492234614981 0.24363539297926312122 0.15774884455403578865 0.02395257933432393127 -0.18040348902992889291 0.11618205801976275171 0.0052038538675071334405 0.36448242651994117169 -0.0225121819132047922 -0.029156838053932838256 -0.029298192669789200476 0.12498181113640770279 0.3324245217842081157 -0.29073619396324362762 -0.17114829703197739774 -0.025704879467746456073 -0.020628686158263027928 -0.13741812848454582063 0.18888428145780752909 0.15975469074048903595 -0.066136643591354238314 0.30149099058729011968 -0.021796908585410709747 0.21911724168422880288 0.18048243275645595163 -0.21100684025809957056 -0.035771109661219734066 0.35187342553393580191 0.078528903619249995627 0.24702029619877538535 0.044241249713384937781 0.18706424823971767868 0.1840001405705514459 0.12627562282220178291 -0.1876108789166796853 -0.2543255281328630768 0.0032221060337278614044 0.035791198803451398924 -0.19660593078280999557 0.17060183197670392152 -0.01666308169372356443 -0.027481673525004957775 0.044762695497064054762 0.050388511363051419201 0.21689185809900582425 0.25921750285227879163 0.18881195522693139388 -0.082680395000507764247 0.17242621031397498133 -0.22681642243917835011 0.26936759107024177418 -0.075857772798033393236 0.032934894403249106998 -0.11437334320800413012 0.1218695883163239263 -0.084917353679316423531 -0.14688016676490803225 -0.05820334443102224975 -0.14073923818752537285 0.0076783932310808562099 0.16285083650388229581 -0.085326734441095952732 0.18958471418851147172 0.20539563336355440293 0.22534336069821625514 -0.15705849595327711632;0.22680263680126283576 0.10053329069383076799 -0.04149472877564213541 -0.071334908589379797395 0.17668013353268605115 0.250726510384278789 -0.017297480925676865515 -0.032251935746785968806 0.029422410588373970608 0.20386031271400736897 0.18485695497433704548 -0.14080675697334424368 -0.075359160353687282274 -0.031458486970570624652 0.24061209430810939769 -0.25433551596285314256 -0.013406698943172956281 -0.19403587839613314903 -0.22373617785071270303 0.18887943703821913344 -0.27387033518758818751 -0.12059817650226656305 0.24752776616629387774 -0.14779781326354904381 -0.19840709781515930565 0.074217191631245238437 -0.25788762171642265475 0.099124941717018758003 0.01139137235560506306 -0.15652846101324185968 0.072601733822487302117 -0.23579772509870083885 0.069477396478563893667 -0.25499299228066590883 -0.15122542004659078607 -0.20595603007253351913 0.12093951108844019915 0.10396819061249042149 -0.095212592638263301992 0.18066524950829387919 -0.10488714756036159048 0.16254281543528506515 -0.20393864457092619746 0.18531407382283021645 -0.14714810407041292728 -0.11986872772224664574 -0.19055784022772601083 0.24363668775984997916 -0.0037070056695727039014 -0.14903432941270508549 0.24217422075238329016 0.12601988014098874924 0.13263844322111370544 0.21690527288455616062 -0.10160429942141124826 -0.20363789173409235778 -0.16105358078641482389 -0.032232178568461923585 -0.23612659004549718667 -0.21829090315595797711 0.24784809090949749821 0.16760914418509728629 -0.12079636199787875672 0.12752033741469970263 -0.1425956482877864806 0.10578256227240030729 -0.23909499109748133527 -0.11717866493237032166 -0.15609595368386997016 -0.16043803004217513375 0.17920480930596158209 -0.21923568036072563214 0.006892105565718483276 -0.031269578036092440798 -0.13450441204608162837 0.099980643614885733594 -0.22244442815108586564 0.23972402848258428376 0.28721521966026170025 -0.24899193164473928941;-0.24619919482275409717 0.12158990858286840286 -0.27223658250024068694 0.04084901208367150427 -0.070453838211720257179 0.0070815904135657394003 0.058425425903449207388 -0.086360896163022560224 0.2339743407306854317 0.019024444338663060866 0.23558011760701025317 -0.0061285076373069468508 -0.040617797407031676349 -0.10239895230075453381 0.027781148590864598868 0.12701676754672114322 0.20051886742518196249 0.11617920743970838737 0.093430017816534899344 -0.096164373375720230142 0.051495219087587806861 -0.014576229775763779178 0.23448073863490245805 0.14490293226255196446 0.21348176225340670387 -0.074525479222567664328 0.025507976220805680945 0.087672073034841632722 0.2681268326595493412 -0.13801887826721234709 -0.063506507389362129579 0.035382602933555690194 0.060514148515830243347 -0.14909865898656993188 0.28256071303301527609 0.21158621502813612647 0.13671634001878657516 -0.03405075934807177962 -0.26256042749958030669 -0.071541707724489311815 0.050134323918293519085 -0.23403516747304703438 0.21011757840618813797 -0.10831351820170091738 0.091399235203324602494 -0.021526925321761876397 -0.067666914628663879516 -0.24287010421695515161 -0.19579049534674997091 0.22521363915268757805 -0.23123220891520088194 0.27787045958055262007 -0.10585967884247766968 -0.16669459559582253116 -0.22524798324966141538 0.0092271391313563603381 -0.26592391133574533324 0.10324401521327715436 -0.14807610186376948813 0.2567760253552205385 -0.12734655286861962242 -0.14686630022891089542 -0.10318661178857778393 -0.12881424874099550726 -0.073501590068756242347 0.019701319242170237112 0.10062001204788963149 0.057906283088966482853 -0.13164648419274782576 -0.29868708642742025638 -0.18010658012958519203 0.12490058105685099277 -0.2551796947238813007 0.15789150123958986538 0.094893896185356818584 0.29119048828808435925 -0.24951695751273483825 0.24930014806501071822 0.13847431143785743357 0.2361220554656400239;-0.036860118852017995095 -0.013311491813475165649 -0.23960879873178175803 -0.13518635143923346531 0.2094932633625897489 0.21230170156661373748 0.061044933166144246806 0.027534959267448245318 0.15751505577516877743 -0.12830823715214473291 -0.29233144020406798269 0.019236522906937787714 0.045920446327014363685 0.20343650800861387551 -0.19690540978552834028 -0.053654450088732881519 -0.17982772597668741921 -0.13317549712847709387 0.11896277801831445231 -0.089989868470665923539 -0.12738330405868805717 0.14631033015693578614 -0.067329020751987225801 -0.20457753563978586797 -0.18550429646271701656 -0.32904391094453644406 -0.14153384612595495962 0.031403264318086078488 0.073618302951770450693 0.28988612531517737869 0.11113536781988346547 -0.1242830876519982336 -0.20513624654749371135 -0.077599254970111081198 -0.14717385838198324133 0.17788542448582239652 0.2476093695067218825 0.074853286892539616648 0.17526557648405385881 -0.065364888341520627213 -0.18835232193552189917 0.055956396669667167465 0.11987872216235283263 0.14988624928485577703 -0.014379228414873317099 -0.13262238430903117159 -0.19880633209991943611 -0.25442769593193781397 0.05653603954053181696 -0.037425543689765916611 -0.0055449852275864042542 -0.086807021407946619029 -0.10077520114537573404 -0.057969594673615100489 0.075059406557339003463 -0.048042046296318009768 0.053069998131074748449 0.16829212326948367329 0.2173893478864749873 0.11491812326057475324 0.010379903307821479463 0.30493299357446768116 -0.16996519457630615557 -0.20351398907093387614 0.087896515523909146683 -0.28021087959667240197 -0.24147161208739598148 0.26075117843937861695 0.20368140507979112797 -0.15244968172516160099 -0.0044841780635073644201 -0.20885233820392967719 -0.14815271940806784556 0.1644765157744941253 -0.048473187884055204955 -0.21284779382587754037 0.1891032730421559338 0.29204148622576370231 0.23834335707920767389 0.12136146412770534853;-0.050454454720881808383 0.16260837253993584706 0.13951160112842314609 0.092783515677842820502 -0.32398665525229458639 -0.082364888855966419956 0.25136679948931978101 0.22235738413783989742 -0.076945790411735826009 -0.17699021253078026095 -0.026958716484075623959 -0.0064970712359499463093 0.11545580253701905049 0.07648098229518456026 -0.27638466840821940274 -0.0089681070621094958334 0.044218905549355737306 -0.19032275206153903557 0.12663400692333784403 -0.1256814769995432679 0.1338008927298703632 0.061453004084522921957 0.12015656145357626883 -0.12057110417592180329 -0.13824535613601396378 -0.16286229011829489455 0.17318572037840485045 -0.2099904781958631117 0.18483672328660774586 0.12610707102541787727 -0.10830080402719596822 -0.29549259286721218931 -0.22358412133413663181 0.19615930696773387076 -0.25584104894726927837 0.074931599096837303575 -0.2478451297637873918 -0.18883796316577142194 0.041007569767892174117 -0.1095398447575861578 -0.1938297165317674764 -0.21699197854057142298 -0.065100580568210678067 0.14578260346437324491 0.19930556411283437135 0.18759707470815398245 0.13764765499813039207 0.30847118861691452674 0.3024834513084651566 -0.073575420487819023774 0.26078070047628437722 0.023632064174637808923 -0.20881693599871667399 0.083100001646167279135 -0.069097138075349048836 -0.090080096378832644199 -0.13293393282588522597 -0.15516848384346687562 0.21017628355014691954 0.13407645458217251622 0.23937166317393407389 0.13109715941087227153 -0.19502610565085945482 0.14368266638496918208 0.16696904451400618186 -0.02038901185230288654 -0.24659878665674034304 -0.13531650853399584955 0.30804071226001317196 -0.14025763520270126405 -0.16257070898335287956 0.046930527804081099974 -0.010799408219060148417 -0.1844151138295525294 -0.26221309724492514182 0.055541309655567167036 -0.16649579623232765857 0.035676268870022675994 0.1185258873074972602 0.070538361893493606303;0.12514799096516440735 -0.09058273563837002107 -0.27440542501560943878 0.05000441556087322631 -0.09340002269625946596 -0.08203033993438177407 -0.085841292440670971531 0.21199802478199558653 0.1679715558475108339 -0.022123597295119808853 -0.17198166619642388242 0.21389217919093220233 -0.027713116129564337869 -0.022022600527145955174 0.2289230805499496979 -0.063096193682464066232 0.034830821684270291128 0.029636130597670624909 0.26359811111503900216 0.015091490240941375298 -0.017641328048027281328 0.15135776376674558996 -0.039227878059514414977 -0.11078340229362207414 0.30291565674836035127 -0.23186540196350513554 -0.12368656905283775815 -0.20294931081795541949 -0.10363214952378056732 0.22401624178844908863 0.059977940242898625245 0.2187538319870605541 -0.23315090495635037993 -0.21645394582698446184 -0.042313447551086263987 -0.2538555055166117902 -0.1675655954267083747 0.057445532146705981236 0.21383451731468039458 -0.13654066363628500347 -0.11792600788551740876 -0.071165234544140851258 0.13427022904981045226 0.068251620349061431492 0.27766514770120909184 0.22205941458106726039 0.16235251160996094777 0.15027510027280713278 0.060673734794128679482 -0.078865482798692168598 0.24231300473291808584 -0.17423529249976210664 -0.04073059047671533095 -0.16059628795011848812 0.28868225184573137465 0.080379574450775120864 0.15699346103796496532 -0.22425965511497070182 0.0060069426757075519013 0.28302462644883191745 -0.23521859003442435743 -0.040272345370698181544 0.25074840548858778888 0.11460162091309575305 -0.15989962958652165215 0.035375535404697372455 -0.16537318071325909918 -0.14142881633761997251 0.1252318692718055182 0.2090088294477959463 0.04002035189960054945 -0.16748709296788619194 -0.10281125612488156706 -0.19794142769205749777 0.16095908147682996825 -0.16719207439468267151 0.15349925499238206705 0.27407467607273094945 0.25236430107781193666 -0.2417980295849409822;0.099819269472126923026 0.29025957636465754552 0.072976685120574799615 0.21076242021022609241 0.20750933475622501678 0.11459788125806104342 -0.27136886106638452576 0.091281007481065934428 -0.0013878920599375396856 0.12302507929480863136 -0.1803497288116619468 -0.24179460271000055571 -0.27378200193678497998 -0.16667300122360120818 -0.20130905065025650469 -0.033291847571025483254 0.27128449339949661789 -0.27642910505328133208 -0.023207892389013180107 -0.25816907663569915732 0.10079803313236422591 0.29630161207139704693 -0.14929034974091370813 0.09510160493666343362 -0.16283141855689625688 -0.032979158357671227442 -0.12509021494446986855 0.22745576215942223119 0.099290950708819797343 0.062811987204287877962 -0.19671919343344659858 0.16739143601205835887 -0.0035119902631046153417 -0.22186749762115609563 0.20033339132146249506 0.10942939066685621052 -0.11774913188381666562 0.033157516119481741934 0.11084892111523157732 0.15870522514840851303 0.079082638134761254478 -0.19704595530825821936 -0.15407769405257942807 0.25045661823065568097 -0.11296641687408359722 -0.058658890207614999834 0.28169282100075215824 0.076003465871042855118 0.013701150278280692374 0.017835992670744635347 0.21933072422587016059 -0.060638159433689241273 0.1586983808306739463 0.24837221724188041083 -0.048455101223626013962 0.014030238147795505432 -0.15379763158112327859 0.072556617961881259005 -0.069458892843238098647 0.24431721643485210249 0.027156381606256163597 0.14525274118494260756 -0.26726407057619050445 0.1168925876030381672 -0.050588600920932431937 0.17036007615098985868 0.027109857044534883819 0.20959471457865230803 0.10701828235518701105 0.072497202669275701004 -0.19788509226501177496 -0.096041536491579010404 0.022924062623748832357 0.2580102076894295049 0.29594426821814778794 -0.021641551669570015942 -0.050179638293830604312 -0.22538969132333505629 0.048537097015007080181 0.2423078992033872725;0.040020016717060589995 0.2856608831800270254 -0.045275785781520382078 -0.18985365667635636933 -0.050189066183804358079 0.22836452722574548946 -0.28016344629305994784 -0.13415255847486190488 0.09312886663997849146 -0.041681442517162943517 -0.33477116111469185089 0.22629133049812066858 -0.015486034635934724235 0.18857045544366154988 0.062046875733427514499 -0.095746441709648993923 0.046192850552032080347 0.056430140016413998794 -0.21493933553872959785 -0.33281278833342059498 -0.1039400744950677441 -0.021063782096692407197 0.047513492593057968238 0.11518409649344138468 -0.19259924120103011358 -0.17081804690520854817 -0.11844977562082663336 0.23955258028312098606 -0.21655260812203649956 -0.28117955387134818679 -0.10100439996972807033 0.22899641318709995641 0.14876501585940277161 -0.026419824079870653233 -0.089825941845097456717 0.079986296324787098388 0.2661740655917889109 0.1221907021865148435 -0.27002604666144153223 -0.085043148613259469948 0.032097187963148067491 0.058587752152443939302 -0.20151313461039996322 -0.24205562904663902035 0.21434077492067887816 -0.23834474293287882807 -0.067263455734392990637 -0.066179025207129413277 -0.29001112329185124716 -0.29233946494925683313 -0.28981572329158694634 0.084312820487344050657 -0.16663489498120936938 0.080219296964682745843 -0.18937804167006688782 0.25366460980070382192 0.044143729109853722947 -0.016141760570649116291 -0.23398549901191009748 0.17659946095316081394 -0.29642704937283609334 0.21571390755294292396 0.025715184627836729092 0.1170511626182989956 0.060023143210837619221 -0.22905224397129375635 0.037822524536777604731 0.23083582972105992637 0.11420027153374873174 0.00010540613032429492144 -0.20290357229276800854 -0.24940885477231350409 0.18320605974999248922 0.16093998740238762979 -0.16912761469762638278 0.13305443569598690567 -0.1624973683342420816 0.027808531398371850313 0.10884964267959071349 0.098466427760695252047;0.21677120069274019576 -0.20160226519200599715 -0.031006989701510195845 0.01937882948714220524 -0.31747808048386944035 0.26856569193367346715 0.017664072913860701802 0.21330731760542237518 -0.16449854768012706074 0.184999683808789811 -0.12462708804940547669 0.028025077350357547462 0.005417611222243607326 -0.13187673496101898207 -0.21278483476849552325 -0.2420691270019508512 0.2701320200035676744 0.028945127643447698951 -0.10778417530362001397 0.21777239115326146868 0.32928226163300011731 0.18889937549084875879 -0.058560784482286243335 0.00055941451921388612653 0.0037178047567570965577 0.13706633081774252658 0.10185021541601302353 -0.16174622293354753988 0.29807296073042754969 -0.32198232967827672413 0.11435308793843897146 0.31083260561999820348 -0.10338956567328742853 0.18785096540023379919 -0.32756365518634916745 -0.19539564337694353968 -0.19489835972241789652 0.24344383385284562582 0.02698876229042503766 0.078272642932602914945 0.08160743813597748364 -0.078993619059981576291 -0.21081612247867884125 -0.21176551710560895248 -0.20072024400085805573 -0.036171051788139681193 0.1185071864898049887 0.056932546941763750858 0.23059516446994429706 -0.11431694552353829919 0.17914895075697345739 -0.27038155624908555286 0.17749788472793576188 0.23055212691543522374 0.049149767580166613123 -0.030488142731803793972 0.041449565575977377618 0.22596885513480979846 0.19221926443057207878 -0.020003971003436163412 0.083674351758775550314 0.16952143776422720634 -0.061181316126168686087 0.16852819512690217496 0.078062731673034249646 -0.048203334932441714578 -0.31154549995849040167 -0.11255133415434291633 0.130070114770218348 -0.049695048522698258286 -0.040929660871495521235 0.11468638302081060609 0.11539591291539033624 0.11318546906583551448 -0.20874457045344699258 0.2553013548652388609 -0.031061268178236817183 0.12224878913765567512 -0.12660374396218956883 -0.27256353508503844418;-0.23673209082606236353 -0.18556280849254502829 0.13429241738250602411 -0.26154252454517573634 0.13107735806632264675 0.27736903396752210504 0.026921676094989861749 0.2333062390394822494 -0.12984982971020231357 -0.10034703498317674997 0.12110412329999621639 -0.15493048982182500151 -0.057152132732503906076 0.087471176399502317822 -0.096631620091862019395 0.099790390332271133866 -0.040630820441202288029 0.16565974854816037376 -0.042912980900684821739 0.077623093855874722435 0.15459911300218961983 0.25902491963028750899 0.27149670049759111468 -0.14401338868847518571 -0.025238610053060991228 0.032064611398913006601 0.05573058275230874381 0.13741558176994222995 -0.23694925517259801673 0.061165350155164922852 -0.15643776521871802232 -0.11548039911477964159 -0.238126132146711883 0.34500825536266549465 0.32292450681789081068 0.28951984831171961865 0.051024553550265770718 -0.25168613823939156582 0.21758532944237615747 0.18106046738944772678 -0.14259827737488323107 -0.18123239818803690837 -0.050542067186149584879 -0.070827974886153860501 0.15013554726077180113 -0.038469558527800422343 0.18442802935633384465 0.21320125888050689422 -0.22747228971032618094 0.10542040780709430181 0.13087667796841623291 -0.10261786996332192268 -0.20277349889561804841 -0.0025767663328761019823 0.0753214530809235977 0.097041129556442520809 0.089533912994707753885 0.22560266250218355411 -0.22191407970565854568 -0.085383869721317603996 -0.23419275095952990506 -0.024164390680647553078 0.18877222294438028571 0.14305713956694479649 0.3002463025588044121 0.10157252599900613854 0.031793872979103736387 0.16301436584838993604 -0.20909015818295839662 -0.32219146421919803158 0.25039415591601310584 0.18309301477971576255 0.016871138146890757303 -0.25214142296807928734 0.064850492975049009448 0.0014442923791388997609 0.053310598674902003047 0.13081096174170520063 0.12347081048526176161 0.0598773554434265734;0.036637863588158813 -0.060013695142939200988 -0.24510046802608967398 0.25092497004022623619 -0.12586605197989336746 0.28450994002015927986 -0.057455563762838050834 0.19300075897585589058 -0.11455646325123673701 -0.24852562483857187914 0.070017318531954392258 -0.041937722805311758445 -0.090490272699785573307 0.25510191693349965059 -0.17869882049539301261 -0.13545801623681491543 -0.27377191528167882373 0.086930316182631625632 -0.18255828731377266028 -0.27994580441472322052 0.15095956669391907834 -0.011546267427057971267 -0.057515457882485937491 -0.034001724575298604425 0.045078619469680225595 -0.1581641748941651493 -0.00082538543783739685804 -0.012700418225594057101 -0.048984012827561276837 -0.052782753033617527127 0.060748481293575108675 -0.032986799337050759506 -0.056719170477615245274 -0.071327341128308616169 -0.1957497215202672336 0.12709546105488261913 -0.23893119279490279694 0.20294895959591610635 0.11556587803537911319 -0.25095937905100412779 0.12496512130963179088 -0.28689861998638566121 0.2025640044245399507 0.25049844431669560096 0.32571616613124287909 0.22714888096498681014 0.25117330079857058678 0.11008125017152138592 0.12310362057965801297 -0.13789672204099043262 -0.28113738936816701219 0.07331885860913246733 0.069927403077123501118 0.15392261711369112365 -0.019538347901405791335 0.065909582299030433639 -0.12818692141524326567 -0.33571735538797731202 -0.12462705324795715633 -0.12404137959930437718 -0.14991236836950080913 0.16037150873263897322 -0.23506767221402849466 -0.28345357130893095166 0.11858196436766574311 0.020453504782670585416 -0.23861301493579736843 0.20593284700037903234 -0.23351648737253913324 -0.19632403775092532872 0.07338221684786971899 -0.17022338478919965543 -0.16639025289708372912 0.023334160388272656705 0.1175751849254469128 -0.11039409690489712657 0.10217315160140955088 -0.094866117743767588988 0.0676964871300437393 0.084635385121043751888;-0.16982838039545949949 -0.21239842112507986704 0.075291660015395833749 0.066640311013289987851 0.17053923257842032446 0.17963462816456204907 0.10186169822839206967 0.25546730639824360987 0.222323542432386001 -0.15442834188271756246 -0.0023550759980682455484 0.039292969387302319195 -0.014248104196058012857 0.18838686970626528083 -0.026545457925598477805 -0.19160329291447861233 -0.011247604613887548022 -0.25162672012254161391 -0.22105053455595694012 0.0095241419063730268363 -0.07100590864401271074 -0.24980923036389643399 0.24276166057869041914 0.22043814145196777288 -0.13464885643998361631 -0.11851569454893057243 -0.22129278233961052758 0.11488241289429794445 -0.0055721011276037395177 -0.12064047962983869 0.013051262257260325128 0.1508671408655053725 -0.11894371329374735236 -0.26939254467510825863 0.14514912917650338309 0.21225714214302565663 0.25176834094387201546 -0.13954011552259562579 -0.18748269592087063451 -0.18986657488510472191 -0.15456380394008401025 0.14396816016581923114 -0.05175646742754122509 -0.12032613648207024504 0.27783174382721781415 -0.20214031181496142087 0.2595820439760682663 -0.15316777491133484745 -0.2471094147799811902 0.1158249935768748129 -0.22173257581387323389 0.19632884463772937167 0.1976904160392610188 0.14768224089621140305 0.22639320209250396454 0.057881823542903880486 0.061959659975796603504 -0.10985593036407775847 -0.22700416107907292473 -0.0068673283928783026078 -0.10936634927667499007 0.25584016824323702055 -0.18630612855338449241 -0.2637696509681338175 -0.12251955251686788562 0.1930990342179884911 -0.11478485176836583648 -0.056923102974541769927 -0.18773896201906117853 -0.089890534660572840586 0.1053637084177638239 -0.24269782338976228497 0.25255785401108787891 0.029097466853105654477 0.25166293176392906528 -0.025632724855948012949 0.19022389194468700135 -0.21216239665860886499 0.23066321186773985907 -0.0039896991239374603178;-0.16844678468857043896 -0.015807442375472116614 0.17568035066276058154 -0.28764469872857773014 0.13440380755080177932 0.18874935461676467519 0.10571694912369722363 -0.1559479226085499215 0.052872904749457112772 0.18372953835692978908 0.072076677906951922004 0.27872662519936963754 -0.014239459734177986952 -0.20255698850439038394 0.042231386112241926789 -0.0651362470794809717 0.20182031925491639157 0.24237570883094997076 -0.08578326798476239301 -0.22992384475960014889 0.04753637551805929562 0.19173660439905493291 0.16666035780023730206 -0.025616859806138429084 -0.12357972357173527267 0.10735597415822555056 0.059543944236939316816 -0.017435616544773789582 -0.20083642178908531206 -0.20533767872547978306 0.17307713789668285886 0.20200819636811259694 -0.042699164345944909393 0.27973987165101188435 0.36646961266762584364 -0.11032833368559274989 0.32447166782933856144 -0.13710610056093402997 0.10591545520126081914 0.16166291576952285247 0.027864162492825524792 0.2305191344657089858 0.080725102259600597931 -0.24213171649492995496 0.012453304142622051431 -0.26153592820695986676 -0.19230310292041230547 0.12335998967486472289 -0.15757484219413533943 0.14583456970712382894 0.02785286914213108006 0.13995832477133116067 0.14224550395351723275 -0.13962693945815160546 -0.11561181633278161396 -0.07007307539935346552 0.071949735936331526975 0.12833136744615558644 -0.1833714892544582864 -0.15921354838039780688 -0.40513569528617576765 0.17279161817266985857 0.18710314971426902919 -0.048450011040525153838 0.1847096210168015229 -0.17609609143984358837 -0.21496442735859297435 0.10630673992304129349 0.18410758720110190212 0.10308286780714830122 -0.3651270671972964843 -0.046383613129739556524 0.1695826002022868817 -0.050002001217637717656 -0.24437592873297719898 -0.26301375783585823065 0.17843700811003340712 0.025895098801975564157 0.17791508874952918773 -0.31900013158239542976;-0.081492410667719977768 -0.2894213955883148115 -0.1230204040389063086 -0.047315482886907726801 -0.27020399504546233072 0.29402337448075865911 -0.11096079598604376149 0.27866531310374054176 -0.078098393294532719722 0.14831902371034655364 0.21548434069115063316 -0.098018208251844984868 0.24589808771923452047 0.22272284928740537779 -0.069576897682907354326 0.082984587928749062313 0.26315625325175112659 -0.093866018880572568706 -0.076265127215060249388 -0.22389953249708233196 -0.19133749315902809363 0.0029283439846427101669 -0.01281223764976769687 -0.20736292316068266617 0.04226201157790226981 -0.088832673051313371104 -0.13108431214535601339 0.18077660344748389121 0.12325270327008649995 0.3382360698422184897 0.052728924000474131084 -0.27742494720806931685 -0.27089325819578952137 -0.24602769247200345637 0.061196144444324883371 0.10555700357797365152 0.18987892968013161954 0.083573861817156563925 -0.15256695796841551749 -0.068434072680467236682 0.26769060804397437625 0.20894237930972478501 0.016218705381665046716 -0.10307780443776116963 0.00084605188304435270837 -0.18545216479177611957 -0.059168942026605268747 -0.22221023948938709025 -0.13434306590245831403 0.31517203866322612837 0.14070576705455789535 0.019043786512559057744 -0.029611483468418253046 -0.26080039830744339291 0.13924504404397614055 0.2927963159027058837 -0.24708721351773296759 -0.15246721079359923379 0.019824455942293286309 0.25298165795644989018 0.23076126590016421414 -0.056233506708150998721 0.046834961936393422477 -0.19193482525735663935 0.018732861734552810895 0.081254551571781893915 0.2393814847085010411 0.015446055581379994695 -0.23722777427933128269 -0.062830761901538925707 0.046224573796500169343 -0.124269719240081844 -0.11848356731361761596 0.18664450409360630601 0.24083621040579494821 -0.21602068166662194426 0.043528894766237509473 -0.23709507168703683466 0.21727011702982482189 0.2141740415354793925;0.13461065334050220654 0.026530967302930860002 -0.0057759035000260420395 0.14075334225062036131 0.011347790549873580657 -0.25433120902784300821 -0.20483062540307273025 0.037623306093145993112 0.20961825114969542816 0.25183240005060614219 0.11412357377642232126 -0.24240805808072887761 -0.17841874147554684371 -0.28123714095632107446 0.20482625765420714448 -0.13382588215969873358 0.054917801423228169988 -0.043647769850328713148 0.13827633200014199932 -0.065781254355231202902 0.034755639706906100994 0.28718826866457247693 0.064028667755117285587 -0.29050618802638683569 0.15282918718981378103 -0.14684240627990269301 0.054485898764050570697 -0.21269808762062930585 0.019451947469832104459 -0.013592444480023864808 -0.26761470526996500308 0.14567448754445089243 -0.022064187823190670873 -0.077370689714552270955 -0.21814021187466442475 -0.042403224110730844409 0.16656814892621837898 0.13406473689976028396 -0.22307184358775333788 0.069349545940302140257 0.19613007434140503071 0.21631440050410030707 -0.28852747180920312875 0.047517075054851580507 -0.13341663180327367755 0.051743430773823241575 0.14734759989364998312 -0.18926074113409582789 -0.038222074478240469775 -0.079018619497256872841 -0.15929594275800113001 0.26579082502810308375 -0.2918129145071315933 0.14986992473713339757 0.204547674159573728 0.029491453384394513554 -0.085623940161156750217 0.24329113773381733088 -0.21919615148570995022 -0.042200378853218284414 -0.1684065528329245498 -0.24536706816043149515 0.086098353994180837345 -0.18102877216675744565 0.25313148418584696664 -0.10242817213440952306 -0.18838610410092751501 -0.2231936587616499823 -0.17321592898132837091 0.10896462630461078991 -0.046902312833771150902 0.22414545247299891284 -0.20600358615329622536 0.18447818512200872543 0.22164761749605968455 -0.081686450158306361802 0.080336899847954779119 -0.10051740054755160803 -0.15488712886668132285 -0.081792992201496550475;-0.059740948398342735848 0.00095056076741602930306 0.11916989393441106138 -0.011333938841615169915 -0.036808909728123256899 0.01534962555883610108 0.14078586677243631886 -0.20775293324202373513 0.19353311327498914918 -0.20148300936568544484 0.29730858277931482281 0.22974915631507633607 -0.043537459090788883931 -0.069571415676094011671 0.015517561950114064709 -0.13386610483490460344 0.23959979414568657874 0.28334559174162132766 -0.11097526249508470053 0.19328279976718620858 -0.18550053924634679614 0.082169446605782792137 -0.22989883419441717316 0.16438194961451174647 -0.20239938909927579491 -0.25664421925585712003 0.17262075223651088263 0.26791918569363015745 -0.043878937034042726772 0.22191206669808255514 -0.16944670678059151059 0.17816529636692254868 -0.094189047803108522094 0.11460575649716704671 0.16204539697514475094 0.33484241029155092928 -0.24840014127051951442 0.17957238972724501314 0.022864569556393720545 0.24962611387993233203 0.11330114381100692134 0.15229444736939470872 -0.0074388162831631673977 0.18532605653085035269 0.042579740701402780945 -0.071374208964818358636 0.15965405266356924585 -0.12244737366824882951 0.13394261861771883382 -0.069371873776230622011 -0.066177228317172806515 0.20076262909792164102 0.089663555301955744081 -0.26955730896022667142 0.077196701716685592332 0.29172227071562140122 0.10159704138994499201 -0.10055490393266655613 -0.061962526421840767588 -0.22303305315252014429 0.060851372034308508219 -0.14025904941774075541 -0.11890175175441883293 0.043305604391131312381 -0.073619559277250862239 0.26130323030349833502 -0.042913547678801844398 -0.20428971371613655061 0.22891564476705431042 -0.042888256753373189822 -0.02926113257208629026 -0.15614282485792679855 0.1202486041279118012 -0.18832821220123574513 -0.2251106469832277468 0.067283741157757759321 -0.087604583443214326111 -0.068919868316888246995 -0.19136054868984508914 0.15060254846347354007;-0.10103053274069465073 0.00051638566169693981851 -0.15279945832623464952 -0.11989114362596405006 0.024255450129663159997 0.09784192401389148197 0.035656177626768079114 0.051583456766190874387 0.0061870481311534376162 -0.15656284194073666338 0.2774671061650620385 0.11552398946343553354 -0.16534016684508520689 -0.23152723282475615174 -0.083396637932432363116 -0.28067662734641929401 -0.18626199765654338769 -0.011368514425597310569 -0.26908964158238418696 0.073993318979231656463 -0.2744493144478534763 0.17175228931921734943 0.17008841090938447982 -0.055218125975873562361 0.035455542784782044519 0.27924774908764127268 -0.083574338389260857674 -0.18060021461730257908 0.097209179203914974909 -0.17514862771070568992 -0.1624870600713469726 -0.22908150145761438377 -0.0091798201584187104352 -0.17378610085145385078 -0.25972433027462887845 0.077442853955687271372 0.002385814025046818776 -0.062160062433208471133 0.19082208744239745335 -0.29077239358153245119 -0.28163947219042029246 -0.0073814643844559288052 -0.26793525925779149155 0.28159133420404502957 -0.28732625954794677181 0.17692145994831262601 -0.050228213231962109964 0.030126479882255276926 0.022499842064040237455 0.02634395200837588713 0.0086986832758237288971 0.14919190902151632794 0.13210202553921457369 -0.16098081903516722746 0.034888765001556978906 -0.042686916308009484333 0.043005968998230281741 0.13702908994816115351 0.19455139590630843305 -0.076091694653309935314 -0.059706527409613741053 -0.16216756572189841568 -0.14545879456318616674 -0.0024633115729737137603 -0.24104654508150208381 0.16710526758999996733 0.25062429487082349411 -0.25423138049445015429 0.15866774255290067019 0.2679261307319565355 -0.18197608492961325766 0.023009535958741344358 -0.12573516020554009742 -0.1275525548687194699 -0.17866523065094599976 -0.23520928363321552679 0.090494242886717438101 0.2551424477607138197 -0.18289837256644514429 -0.1919309443812335092;0.13062985677240099291 0.13006094236997639557 0.24421943532349549288 0.19381643239136170376 -0.088585964749125736817 -0.25289125494725517296 0.047166871640567549495 -0.26304578502636588588 -0.15328081732117454505 -0.2896082774134683957 -0.10051559118418530725 -0.070387613031299867128 -0.23660931202495613657 -0.080367773624424640455 0.008167235416405013021 0.075720169773112203093 -0.046515518367156213908 -0.17185999420791533976 -0.058753938423111669309 -0.22280889797588118717 -0.27003726282499618261 -0.12679993128283081893 0.19161566103788224558 0.22473386858795935117 -0.19750868966983131658 -0.14464621118008333389 -0.20474312457234533635 0.17835705241621779837 -0.11306210653233976504 0.12914629483991207914 -0.058345342349002529692 0.16369563446519286298 0.051471412396363526442 0.16468150249564131316 -0.10484794493519596081 0.16631990354165751556 -0.081336233945859051642 0.02952724079352837469 -0.19621176548898605629 -0.023882290849902922808 0.0068957129506424883619 -0.1279487764176023834 0.051851273774684354667 -0.31935186367235979255 0.022934152036820913689 -0.19227405287464133243 0.13711421019385536257 -0.0013222624756546717296 0.21722915522284685919 -0.27845015476759810147 -0.11239391988267008471 -0.092576715540687484762 0.33616823820766578157 -0.27995263154953359264 -0.020319044886457707233 -0.11114251033121058665 -0.055969483101584102669 -0.31061432598817101391 -0.064970241400559750056 0.16875421022867076459 0.023351849077148070094 -0.28962473338061939243 0.034512031691457591143 0.27884103142937227693 -0.15087714819358666318 0.24686790863064378421 -0.033969905046251025471 -0.14421913155998311584 0.13129526700782445658 -0.011535501252506975486 0.076011995763372558477 -0.05164456404023563818 -0.14402768398387896798 -0.031260862128737236521 0.09953791460470902408 0.19017728744103923333 -0.030080285642722630335 0.15515774139142368693 -0.057795134844534391816 0.16915833897904028471;-0.20516927851961508367 -0.071705940529033534991 0.176644765813751492 0.16325855207760767152 -0.049970173347273785791 0.33125136185444536974 0.16129077353939993977 0.22892745551123605541 -0.027083249554372235829 0.17535731075312671612 0.095128190920687472065 0.014547700195665490969 -0.27651307096641264405 -0.14244605764633819223 0.05407201854877504571 -0.078270547765652898065 0.013392401354300158614 -0.14915609135359381154 0.32740084878535224977 -0.15776072897416126839 0.2165149131630429713 0.12384610740614993007 -0.11836184338247771053 -0.18212021021041044366 -0.29392113069226000199 -0.12918606194815934751 0.029091748541026855868 -0.15784040677228983185 0.10440339264054163126 -0.081966064109995531717 0.033795857039203694439 0.029852392763647980084 -0.16605230601991083361 -0.1046638174888642886 -0.16515971444138999313 -0.079859935705055298816 0.023837220616652776695 0.1799784674917658811 -0.17252277557024547905 -0.12453853921168341057 -0.20443071905656293175 0.22762801251592723606 -0.14169997929467945119 -0.12089747751677075438 -0.14741627785669197959 0.15151513997203946982 -0.10507288844737136535 0.091754807923757716881 0.21109312347068009963 0.11041118413025322043 0.17951979322993230626 -0.0021157440322455249582 -0.15865198546666428592 0.19897623913296152987 -0.25379701052644138004 -0.29744271560499796481 0.21559827624258762202 -0.0072787300069786968829 -0.15403145238530360772 0.20346504437333196025 0.13559608826579550023 -0.14369540292260429837 -0.039244885933780913889 -0.18642354352804316187 0.051340903167782475647 0.18214740386469405187 -0.093907645152815646949 0.26335873300983936307 0.2164374830677650019 0.066020735452033324497 0.21769941365802916722 0.30852174625080602821 0.20178441951562253731 -0.18829487814240958299 -0.24575310190885857331 -0.19758641971190785136 0.2039339369713894512 -0.0027323211920367244249 -0.20291090250669430173 -0.039748380599859405027;-0.14312747012187410078 -0.16182617953618486095 0.13641631084171224053 0.18277942710315309149 0.13589232858311933727 -0.26892309162829564073 -0.2498686931295799607 -0.17990161580288352439 0.24877702816885799431 -0.18370522036088607343 -0.19311342796745392669 -0.049070815150221706868 -0.19912926056497104454 0.032372327090991366572 -0.11435233844090560151 -0.077008634155332128524 0.11082216083458572287 -0.047338223247569782837 0.22974023987778249833 0.23016680162426958467 -0.055849204715870161275 -0.0015612484606280126187 0.11913135213251195565 -0.02811080138865892919 0.060379571506955886928 -0.20482865488649432129 -0.094291776557524825675 0.10170314470143791696 0.15090949205983045234 0.17617124602347600248 0.019078358928403621464 -0.3163816994092770174 0.19357567144111595403 0.20820257588693860673 -0.27778268673293976532 -0.078225208121487727064 0.07674275379042315437 0.23121963779928428329 0.20502605900736650679 -0.13218550945319751388 -0.089343426921028368248 0.17621634849659445488 0.013585758328632862105 -0.051932489570520580513 0.1212886886001351 -0.22707849637561750011 -0.19100878478165500551 0.2740564759655101934 0.10993165766594358013 -0.17060067450056651261 0.24663720108731071456 0.1979557874636609649 0.062026569184490232267 -0.11711802566961868055 -0.15089764487760215506 -0.22696134160671560531 0.012899563085009391195 0.20784836793272279398 -0.098860560345683412553 0.20072661177415992984 -0.23193036141401504602 0.23826596405461775152 0.0065386356791285625209 -0.17173714743997423038 -0.11486230280744286203 0.25195063963447905664 0.2501736622362539797 -0.1305370725293581724 0.24412751742018362622 0.056261066428153455599 -0.19286376503182159348 -0.26456408092874311722 0.045993886034685987907 -0.10595232611458493821 0.2336025541299611985 -0.21353553730378385667 0.0070932881087980821991 -0.25381006444289494484 0.046096614049876617758 0.055001440367874257498;-0.19543002479844234776 -0.31535175710005114436 -0.022789213897362308597 -0.093546693513340856141 -0.034980321944572373427 -0.44622077988912584035 -0.056241019633010445877 0.039589572655794040557 0.23523535143363158428 0.16147545122411771645 0.23480949868169939676 -0.23859272475723600215 0.1246835809843406806 -0.16554943062725160918 -0.049027882032492295372 -0.35561768469904564416 0.031383418136746589477 0.064219469062779019342 0.019017978310687959353 0.31703055413293096398 0.057221664396628582616 -0.35015221495901538429 -0.28835283770931052771 -0.21678036044334628163 0.11918778526742120072 -0.36807408576802136402 -0.069417339102173361565 -0.067577432064646614229 0.020917398554865736932 0.19669032295682600808 0.22042734659420978871 -0.039017578796274245134 0.10223527601015780508 0.0079024196575333272019 0.18734671786309906039 -0.059652642198892040504 -0.12265821888015225605 -0.11860589394181340894 -0.065188313751102400229 -0.0096579756304151845314 -0.25666789628645986232 -0.28131107058117593711 0.20204638835951468923 -0.040764172676973707554 -0.20689026080540662278 -0.45376246057678742973 0.2805411897942399202 0.09475452415046471677 -0.31253315389094871168 0.099883094037149663946 -0.2476426142303174982 0.22325025331656767058 -0.16659790246321942719 0.036637707851942986903 0.21373653923889099349 -0.087667628345632228615 0.30871483781822761649 0.20149619540948290886 -0.24117935996358316753 0.13933011335961223431 -0.026892173634618668498 0.22995387462330540984 -0.010346547073413982568 0.17673062037071271546 0.1203561080421603896 -0.33734987362803686706 0.1789181760798849441 3.615058430526789119e-05 -0.050316756594164242788 0.35012281835644010197 0.098076747916985257403 -0.080252405473114782342 0.10156142506646417822 -0.06201989663809336778 0.1343885124955161714 -0.022343697868136471602 0.26025887721038598599 0.050999454967753474199 -0.15009410846136886364 0.030089376138677847994;-0.11186240500045380175 0.06800820911008979841 -0.057418541560839045368 -0.24835011837297046866 -0.029152150575790142933 -0.0092566084978585021908 0.12171831364240695561 -0.20043149451631867008 0.096986104228978006758 -0.076109422663340517423 -0.0057810539446288555787 0.21689684568542100251 0.17739022876121487982 -0.2610780311194766945 0.13138896620257037307 -0.0028226429500914727161 0.16959000112726690945 0.18465729058272564722 0.0039556672112795810206 0.14289193248596140928 -0.11941117312815192897 -0.3073610629486152046 -0.074395589842301129702 0.1735827585883442381 3.2948825827451002843e-06 -0.26437746015864810323 -0.24212676541681699138 0.14560509109872163402 0.23320140775684489176 0.32704544586883149693 0.12193805806950490378 -0.23713554224843003126 0.14026012458711947795 0.019182485136378678303 -0.22678011845909964994 -0.29065449627296746637 -0.060595340951547192743 -0.2320840082218598166 -0.098493230070400561438 -0.11147840281486660896 -0.050784019017815748565 0.20532692237472588426 -0.11941286262922466699 -0.060906878793452710885 -0.25910765768514359975 0.12343187643102547513 -0.12739532535984762762 -0.10580247299191372634 -0.20739897541230256639 0.28397902177269013224 -0.13384687477913231879 -0.24002114375640190569 0.23825812160525083883 -0.0791690928509419245 0.11926640095517009044 -0.0037512769812785289221 0.1193047397462453918 0.31013371418689122949 -0.018290457298623778032 0.019117077439613962969 0.2335081177646778916 -0.24775287385938893348 -0.18472894231365294404 -0.19307078583086687007 0.068296778296732696401 0.11523049901153019359 0.011857171232598993568 -0.1182475574237173005 0.22975465349436177687 -0.18773278621681710465 0.25585443899513632404 -0.056339466476293058317 0.049886645841937651835 0.15977277403755890672 -0.075357032347116312265 -0.28264118316783365392 0.11067665782966054633 -0.13041563197912003913 -0.090992536470267740278 0.14691538746807100702;0.16442001631708796916 -0.28198743682343524464 0.11632327574423484418 -0.20460428151472323521 -0.24515151534910345488 0.0904227307113047718 -0.19710383632676803378 0.092191914311836709039 0.16466222636841329474 0.25314937514778684813 0.034699652536810607351 -0.30048581865706641691 0.19962217378846242033 0.015026463860407708942 0.21777466272324333407 -0.21026091457018381004 -0.29699890102584203255 -0.054699561605813004639 0.0061353665388742244929 -0.080781705629747554975 0.086621259671013445258 0.034075030014608868878 -0.036243638896307162067 0.2338713063717946794 0.046612292560224900806 0.089791210988596451004 -0.078763977396741430281 0.16867013746598988333 0.15311800613412979155 -0.065746696323584971622 0.24390951357036796954 -0.0018933638167295606218 0.25479166020381260882 0.214616910885328388 0.18020674009787285286 -0.12312621129826192834 -0.22253546596156267845 -0.10590758071239858573 -0.10813951025672711992 -0.15106752141282581148 0.20944595149137495982 -0.23880226973196011508 0.19918181870762813324 0.043068394645587509961 -0.19136114906558046589 0.24775488888965624401 -0.14489343180623631691 -0.23375355098913638829 -0.22972912140566018047 0.12099986550852410983 0.25329977717354068556 0.067678541822241186643 0.21408187643345497064 0.15810991006471442066 0.19789935223287530297 0.015820234676356390024 0.26458337370487050588 0.26164495756452677 -0.07340667118056951046 -0.1724351282912536254 0.034010649419627746182 -0.042513514066391373813 0.12896445498648639871 -0.0081810394629024257851 -0.24073608729427822817 0.1627009048045376105 0.027458706661863448856 0.15261394477823961302 0.08143617886160875452 -0.14081480379040503537 -0.36172158643159102454 0.065712994797293380889 0.14862242491997107452 -0.065723132297767244969 0.064233594570113156097 -0.080151010956567597665 0.11322427696643624917 0.17758753163155091559 -0.032766375962463220595 -0.089593617832121913436;0.18187284052483601582 -0.3233746973171520156 -0.092206276467371839356 0.22320742751129918346 -0.029025386540617870157 0.075021206153733546729 -0.10069185030605480591 0.16422300707167250544 0.30604185221846452736 -0.10937652080900042706 -0.028571175851468504081 -0.02204693927278824836 -0.054242635997537196058 -0.056176813215082402331 0.12752715652095869547 0.22473106339844012291 0.1182548937195391503 0.038231493026367635579 -0.10226155976122097702 0.056388991583598085944 0.19728664828258685171 -0.090394189481173198297 -0.21973872404214558895 -0.24164864404507327422 -0.2973778365798049883 0.19544312999576179957 0.060187963056384560789 -0.10251785857040630889 -0.21648982920456510959 -0.11429309611306393002 0.13351932288994475262 -0.30275365328553494049 0.010162591817584661763 0.015351004458420875604 -0.23030004186924116216 0.016865397670759337684 0.15946926907769881643 0.098795276245541963078 -0.13361063396307570894 -0.12035872642459762016 -0.15466451138275294497 -0.24683859886465234212 -0.15098855213250073071 -0.084355733697669715854 -0.29413295424611374251 0.29401878122948121863 -0.14298595832473437461 -0.20613224569375307449 -0.30295668899009264852 0.051935395964673072844 0.044506325379266346853 0.030545575006955850983 -0.1864843195803015663 0.23963023926390825125 0.0062499148490538919409 0.18076361607614546689 -0.12247882421270304965 -0.21875158047724538313 0.24515183523164110757 -0.083698635118851436032 -0.10848482877560648718 -0.17958515456401280552 0.28181261823274122991 -0.050734450682883854011 0.072968417482067601809 -0.12169573686696727455 -0.01938043632977380637 0.11204515084363014799 0.20839323199278372845 -0.28050573819179475121 0.13893590015693108031 0.10375513386939479166 -0.2625145095305494447 -0.24266481088771113539 -0.1911517034742541421 0.10344378200520938649 -0.23572176610041689626 0.14162880894977702972 0.077323412191889068223 -0.11040650709393474982;0.25601096088896563296 -0.21331936537991968983 -0.21535881660787822844 -0.13511959794323899486 0.20451957660550998397 0.078878626519986588805 -0.015056744275126500085 -0.17563159310570131133 -0.22418667290148322491 0.16797017413991235935 0.069264257905251008784 0.27870804200699589304 -0.040581432136811174116 -0.087734145996201176598 -0.10824362634737712263 -0.26376008203478751302 -0.27037796058449459213 -0.17962468939106368548 0.073593419228023995715 -0.10541860650695240864 -0.10120914969819756746 -0.14880342214237027298 0.02909116381848324967 -0.23468580257540228029 -0.13061555420458631493 0.058345793980612896401 -0.11728739369269076953 0.27722116700872351247 0.0049539240001004883687 0.018320596174773034343 -0.052625732859262731866 -0.20315537943991734959 -0.051846682413027242453 0.13100964390838726326 0.01989731719631699508 -0.27813860230090609038 0.24480362357723406408 -0.25362334255721319387 -0.018891104916566404948 0.079633130892518000365 0.10386437077668661533 0.03807525163334972429 0.074920313339210731218 0.040169359883659279398 -0.051578891094669329642 0.0030214489919252536694 -0.075228583612333893571 -0.24395206687229334386 -0.03070396280742567971 0.21319124578127818248 0.051380554062537456272 -0.078047928053476836596 0.18867774201665254985 -0.091798322079257602124 0.24498703784173253561 0.23535802050165105515 0.18595513300776217447 0.25449793179912050256 -0.025443254116079800503 0.03472227163403934086 0.23661815547381404023 -0.18475554481682185393 -0.11214537342944608245 -0.19303370127395230726 -0.16049453691155060597 0.039309558400979632831 0.23689054692591374196 -0.22598848852562908318 -0.20214080063063125103 -0.086924671155262311917 -0.18142791291826351752 0.0073743012218489461043 -0.1161654939059612035 0.17920589442382156564 -0.25520879639943583328 -0.22736117680565939847 0.10362706832352651387 -0.024238112660457947906 -0.2798274385353765048 0.27142466195649644911;-0.15912128653006377133 0.25708034380746208614 -0.074350059933013676328 0.24031774651378690066 -0.13805788500975149646 0.20479493131894613289 -0.043519058081258013559 0.13507670488173179058 0.019518565425816591929 -0.17785049587374970881 -0.015900891543020864716 -0.19028742191690822816 0.049046476089001665721 0.21853557626690600646 -0.26354323299401100078 -0.21435089585613015251 0.21881559750519499752 0.063508774157429670471 -0.24132088374352755888 0.015779517025634764993 0.20100995044746119977 0.18578743060170238577 -0.11656946672431328649 -0.01255740183612496022 0.085165188232958710657 -0.29367354931986500155 0.053553601687966252698 -0.1450550469978551249 -0.27108541124398127797 0.24832141192161033549 -0.22131362466518417209 0.022418815989146943096 -0.22868595605501798596 -0.17601763291305558279 -0.25339154933268237535 -0.046038742154168296739 0.24784558037652973383 -0.18830664447415554341 0.075384574948740692979 0.2453625918969404851 0.13496731748580417798 -0.0023111048867476059222 -0.068639098433087089579 0.13626325985865758716 0.076041935909523517001 -0.036319398292293629538 -0.016361267896542800587 0.22828554778498591493 0.0084730787520700800303 0.12770928692210245514 0.11522549132790306514 -0.15400094068613401355 0.13044098384036059701 -0.27466251779662620436 0.14592471525176367586 0.063261133104529604365 -0.075699676548656391617 0.16539949427896452616 -0.00091022548188220283542 0.26089150379852310557 -0.16932755831704746075 -0.24471343375880474924 0.074405510270415226026 -0.22741607526126686456 0.070887325882560692225 -0.17106516060632226406 -0.095710927302134929384 0.21482265547395446026 0.0086208327545672040065 -0.16893989154574182154 -0.086030140884426314907 0.19712661568490955077 0.16880901996726352388 0.064565468125004563116 0.02173408412204313675 0.26125796788372790402 -0.17397332770415416259 0.27623180956971327138 0.19483686469394476126 -0.0029097344400453597178;0.19464894718877678859 -0.20479152420829310755 0.14574094706718127012 -0.062205152974437280533 -0.1698753002316271965 -0.31538942264641606217 0.18435104624281553609 0.25616590149659274056 0.25115878434783867057 -0.19731440380687054192 -0.27397113474056317139 0.17735009236127557974 -0.12980816191514268909 -0.072908302204089628362 0.31377032334641408173 -0.15185474466877504907 0.31083107039164675767 0.13389578508889163344 0.25448909183423767955 0.11518476641585521925 0.18661049503898236024 0.32726411680266220827 -0.0048061804587053048171 0.29146902890555725918 0.070561333929132039056 -0.19743721350429424555 -0.16384764622971051407 0.19797906094134185007 0.25824947960027172522 0.30087502185793368881 -0.25278227217793375337 0.024091282889229986841 -0.080046745786369055686 -0.022320806737619755533 -0.099814773713756993478 -0.0091123301371365175022 0.15406449008732697736 -0.23952835601524613551 0.0099669223474514127142 -0.054292694109245698275 0.16247783954945962948 -0.035408682427239851487 -0.070523393319327415396 0.17898830129142476175 0.13608479288501659776 -0.10125742818380009669 -0.09771141239026406855 0.026088997504683495571 -0.20083562487080194869 0.15381097927210224396 0.053062773617697192585 0.12381539128008491046 0.15357042718910504653 -0.053398618672009873221 -0.076457639296149890185 0.26161818710819539913 -0.058000776458949826475 0.19493428514117494554 -0.079100154698490257599 -0.001983887377420888963 0.19281705948976335385 -0.11086778546857121996 0.18607047733578113702 0.026133036470562535231 0.11325830418939689115 -0.20348074986433231648 -0.24199075934605707161 0.0061350578284291336362 0.031693446684461161478 -0.10763439713158741429 -0.095605653184443195602 0.097786953342536203637 0.2224164641908259743 -0.22720800058574111557 -0.1466702803050305981 0.073670656738749659698 0.0045901652865596130615 0.0061701167265360351219 -0.074307178253723224493 0.15522178240517725545;-0.29278269758189012784 -0.16715049441352963777 -0.2377858089657017282 0.093652730008989895638 0.29058655834064611723 -0.2464650491392130216 -0.12621523937993078812 -0.17702961139074691044 -0.16082943550429143476 0.15371642660403814218 -0.057823331993315033039 -0.15989903446753683802 0.13059212811076886807 -0.057133958696237177599 0.053954317533759892089 -0.17932258737843362328 0.12011153742107950892 -0.13813864451862012395 -0.055031027830277044754 -0.14435594905760285034 -0.074856179239137482506 0.15850483290178585261 0.17810359411576917599 -0.14562785853299017869 -0.029181059567667637367 -0.012439343150584923278 -0.25040257019669431848 -0.05840400955256597193 -0.16624418604636381769 0.22529660480071719841 -0.25642860730090627497 -0.21850010110471235203 -0.16496546467150641213 -0.25909318546999682287 -0.20425914000619885269 -0.13047229780371513708 -0.068371933840337947852 -0.2082119282929305315 0.26474958109877061441 -0.26230136532708236974 0.19927516225834121522 -0.11660328696910252089 -0.14991364725445524564 -0.056642057523359996829 0.10597114414843927799 -0.075037131321634933934 -0.18392240852171015675 0.15056959409574355302 -0.074882501836237874704 0.13900598373015340958 -0.17856220543056236516 -0.059909900337055822794 -0.033475719016154849295 -0.027605505131687042147 0.19661550320137569092 -0.215947583089502404 0.14681634308135035893 -0.27008304098396207493 0.21513547621843343016 0.13110873214196619441 -0.2699307630215853071 0.22297086813612237988 0.061039761449418944439 0.17340005367758637433 -0.1197293779180590434 -0.23072628850706392023 -0.036732903476069424242 0.045307424648594392391 0.19847189480943103201 -0.19975749349920704501 -0.19731493048147510927 -0.20492210427957704977 0.15989385879535239487 -0.035614682007375698947 0.2359851091617355956 0.075840986711843638712 0.10741552266162847362 -0.15883323948094077438 -0.024683117607834089563 0.20027302149622863703;0.2767235360751867379 -0.10880856537657360161 -0.25465068869403578722 -0.19921644358513709849 0.10407568913947566613 -0.13536189383146290943 -0.018957808253526293313 -0.019418126243299704131 0.10959823901481377528 0.01290969868276645692 -0.21616559422491574138 -0.08371501099664657719 -0.04344768516455121965 0.056411650892052342399 0.17928203992068209027 -0.17107064738439514695 -0.065092270903549021011 -1.7023142557688706201e-05 -0.21762219205365254671 0.014034542322803341893 0.12986120027254843823 0.27344936580115569713 0.079974251196630513627 -0.25852669466135164145 0.19864235554198325651 -0.10858195669030842878 0.21588130533454003013 -0.22957250668128259541 0.084363529032987508161 -0.19180462353944660592 -0.19772902980727916078 -0.20634297780292554236 0.19391389235363695742 -0.050481136667373971427 -0.18952529036439530463 0.083950773775526885134 0.2877701002338899916 -0.11358553382334943271 -0.12543563103415983351 0.2351354416575180406 0.23114464600465070565 0.1744365821607468392 0.089791482161768229608 -0.11839758342443308659 -0.061387025189526898961 -0.20233347738852905384 0.24517323272392232969 -0.27144424045027892856 -0.079993275657422147074 -0.16063830556332453492 -0.18587657335088406119 0.22163423217920533159 -0.12393967576557723964 0.12117052521577649504 0.24225034854413504681 -0.079765438871816127242 0.22191548822257800566 0.11210940289661591729 -0.013517781153305425193 -0.097785157520837773237 0.28538888219964314574 0.2707255976687438781 -0.17429200744622067032 -0.087011829578593699597 0.16888457914604079746 0.12645398370725363657 -0.041214253408734399797 -0.1640706447528458567 -0.2481563758786544116 -0.18790730844395181487 -0.0026141720408501059603 0.21053375241555688513 0.066513096915431196843 0.060380610403074352899 0.27623950698406979365 0.094734193526776186434 -0.09511416916972290081 0.062175399013917151403 -0.073447582191801891183 0.10723034286066913945;0.010612234036706063439 -0.3160629106321817261 0.22803843464707121425 -0.16108659937336011758 -0.26764261254945870272 -0.217329274181486648 0.035032304333070966862 -0.22977804516779329336 -0.0186006707283067306 -0.13796903251403661028 0.15771934415682697939 -0.29521625139855750541 0.11619048244669782921 -0.040926860001160976499 -0.21786690933673727444 -0.015610572376320679122 -0.1402855532182934184 0.03228391614315311714 0.26843687185481951429 -0.16604653791648787964 0.17982950143097373163 0.02171769516976942635 0.092981161060073841407 0.20711777678906362343 -0.17467876483393668385 0.25534319662942767115 -0.048633704693405450936 -0.12639244297602411637 -0.10859030786764306553 -0.010556102950561042572 -0.15546728037565224478 0.203050130567213577 0.13991005001787132356 -0.11119625460176126019 0.15790514377857675643 -0.17853803358906919496 -0.12614966033390626055 -0.1162316835099097001 0.2122350120407600349 -0.20412021679179417899 -0.042233858553819565718 0.093118566901486676812 -0.19011144224297513161 -0.0048974958248861766991 -0.13748314508002404399 0.20299062857353283862 0.23513345315917974498 -0.077524885872412255261 0.13236311456693464206 -0.23160131890108809349 -0.031153246067927412716 0.20181232470876839247 -0.032008122997623351946 0.27314625638917372497 -0.26794022704810710467 0.12589913911234451582 0.17606813813319299733 -0.04967111015008311703 0.13150920096513157853 0.074188215771557541878 0.013834708236403023274 -0.17542901234215627082 0.1280752297825386854 0.1967249227058888994 -0.19518821923256138295 -0.14269081944744466117 0.18999571686185895425 0.017649279301616388471 -0.22572907769018818458 0.028555476384846883303 0.29044938679488491173 0.23951661548555350234 -0.19936578612924080178 -0.1117740245980488184 -0.23748530280422827654 -0.10348614510509657194 0.04997949315879198634 -0.0055633647156479717685 -0.14248226780975301042 0.029364259758220344343;0.15037284661020466903 0.25699296567438445482 0.010079997655570540824 -0.15600495662346960946 -0.28113208678994805467 0.26999491753524501592 0.041632201668876864242 -0.13037839856489813473 -0.25229272031696448053 0.12249960650856700495 -0.1912726261916867232 -0.095974502427445193553 0.26854706944705103444 -0.09402154520025299278 -0.0080916541130919370645 0.078376204448345906939 0.024306493336231232288 0.19320912638879572665 -0.032932145725375228107 -0.17417770053591913326 -0.16737182872285474855 0.0034253450086415195702 0.22808745315469669546 -0.26610899690799671991 -0.032735564368367865706 -0.16983862360951923476 -0.08814664267759729499 0.27119913459191336003 -0.21029093496853623613 -0.085358737790799985024 0.23560618675463335103 -0.18751841132780311394 -0.12432508862655686221 0.12071472128412873148 -0.22265065048294274686 0.31654768307258707161 0.25272078327840802325 0.0091779351458695073579 -0.18611415555553670331 -0.20456476537277509808 0.07038167290799501874 0.22130151053480487389 0.14294126845651480839 -0.091384093077812242334 -0.19748214695518803707 -0.039207993957966071064 -0.29166993162958643193 0.046824515810697395213 -0.0296024797600085883 0.16868976290159046205 0.079575363721217290403 0.32629396967096746529 -0.096237445689613912436 0.095377317048401633048 -0.18905416444583511559 -0.059446369790953856871 -0.073962857060606443382 -0.10673377484858781461 0.17857349253701584879 -0.11436154909663233392 -0.14212866747150279534 -0.062025051978629015814 0.044066036950441270226 -0.22373107871187319917 -0.18028432885243450556 0.28392024796833825739 -0.021468114086874719171 -0.12874031215676318141 0.079084433164528997184 -0.054928858207142508552 -0.1169061952647856284 0.32770908244080210192 0.26850814925796978594 0.02760714840735950526 0.14910338501242284548 0.13162435522054510839 0.13333081168114874204 0.073266287982715408433 -0.2323203255469163675 -0.2992170592883128255;-0.18709556687656589413 0.30220754108898317813 0.12027138772537181166 0.10390552439025185771 -0.086849799807874550339 0.10891087912859942488 -0.1626072735471253139 -0.1983111774018957163 0.12237900744333982117 0.12587801897470704549 0.1791730425953708683 0.22556033972920080943 0.14495969045863221769 0.10565486131153940808 -0.037940903598807668162 -0.19736910970958043698 0.025670196749079211146 0.21126249707796557198 -0.26472904100775146441 -0.15776489245731017963 -0.16169624465952231462 0.21258898800467040946 -0.1970373588268904963 0.14389396582509508815 -0.12230006396902094734 0.023408373837587651695 -0.015616076860998995626 -0.030263521393247776181 -0.24250511605294797213 0.11721858584917260737 -0.066821643208835365679 0.18859993892612658684 0.24644486506452242813 0.27290362560163128336 -0.13441534518724992942 -0.21943236339642091526 0.29215308813722751236 0.12302512276287082271 -0.2219076538738033455 0.03760093616959190449 -0.20428936348898205089 -0.093200022143675828601 -0.020525423982429204933 0.14669843282888911373 0.31781426249645411408 0.18412410369692755463 0.087410609818227166801 -0.053307924282341115352 -0.076091700301624154434 -0.0035783631263467041358 -0.2987224421332377311 -0.066616939838098784832 -0.23508625129200072523 -0.28921665052402140139 -0.052499164501375851499 0.32786231848344965512 0.31036509174332055361 0.050660659128055007816 -0.25101214468818627834 -0.29748760259239881432 0.026962830227073176365 -0.054259259682558354243 0.16849723000781421933 0.042588368283777829071 0.2521285020108451902 0.007823188274696246669 0.10676558340143907366 0.12491711843084647715 0.037959476531917259179 0.016120649265836905356 0.085472618621056914434 -0.077258934948210095106 -0.18909363125800615624 -0.26364229394442917354 -0.10937514811916644597 0.0026926692954218479741 -0.028529539417457221162 -0.25056655125069482448 -0.1853262033381805618 -0.26522701554797067924;0.0053113073965638402801 0.035859622422256667851 0.12687521999108414272 0.07416996889682653249 0.090837035666696042124 -0.13823178576846151255 0.06695138442256044764 0.066540317575272775463 0.1244048450417917645 0.13797341181367203666 0.27585186714399001495 0.079191142062909516963 -0.2843126094829677708 -0.22680229697656908994 -0.16659444893597352699 0.19806289040002844626 0.2933657659331979084 -0.17512690587037524348 -0.20702308854739590038 -0.19740147168084151708 0.058306678337306024063 0.10500768971676104069 0.12494820947337327566 0.11161361494685068108 0.2191416342175101506 0.0018526965788846297151 0.025029767550041336771 0.22853833883632096446 0.065598094344372984144 -0.26697573644342131871 -0.24703785713504439192 0.12433686199829525887 -0.12307378572200076972 -0.15771937691433149387 -0.16619018296076268348 0.19278718960170521113 0.22363888307279472523 -0.083361642307525615769 0.07874058922257586024 0.17229183224184699275 0.25010871265778600314 -0.12577820249339816128 0.14586786141409446849 0.21093185914773096568 0.2768048104843889301 -0.18087475276793371637 -0.1164247248896771586 -0.29133361766788556935 0.16537683861478336134 -0.29709474188680468076 0.12433990139040690392 0.24528194259588639858 0.22021471221452826317 0.037105881531182841049 0.060454229439213330588 0.27989722491223634204 0.17638780995324868095 0.069569299087173699925 -0.16657753507866418508 0.10138581265629550976 0.015466193751139872131 -0.18654115416751124168 -0.07948046549134595018 0.10932238886429000713 -0.20593872735451901335 0.072706237873722698306 0.065644723813539820889 0.025901952537862725501 -0.0096520882963237117358 -0.10145161601060061207 0.25345627551116400866 -0.22198565267274525392 -0.13089438188320173806 0.17805809413366538441 0.26629348890250048587 0.010468911998531523974 -0.12334328333887029094 0.24537499215097688388 -0.13877170154397436286 0.097182670492953759922;-0.21848222333024738817 -0.25311253426007729317 -0.10746900559617619808 -0.029200343208648428528 0.085884809195315478525 0.050534445492659701982 0.096926824669553379721 0.21202104142135186349 0.13122177351294167513 -0.21699256934126723295 0.25658760965730231796 0.29607056416244104113 -0.073873070176661434494 0.27853076040690361026 0.13410660202730698143 -0.056862039588090627917 0.12888143289188933038 -0.03267339225643653422 0.040728890516614456307 0.11805394642939273653 -0.14633660705668385948 0.12560322181942562558 -0.26300622622497876746 0.12902359011194075578 0.39447491864312417276 0.13194004284124338788 -0.14031460617304131189 0.1529324781465926375 0.23585989237626989179 -0.065997105226125701849 -0.051102703192364998253 0.080873001045634301809 -0.15840992900346465011 0.063002522248057829524 0.17184392584035895757 0.26987175963709880699 -0.19199871774735011165 0.20270054561990333286 0.08739590434092679716 -0.26242088495406346027 -0.034047247847610664917 -0.10516763216696232985 0.065631145233003077011 0.083156259930470946551 0.036323699504565327978 -0.024177434699514565447 0.18689701548840442769 -0.13123109090513826458 0.22559270289626928707 -0.11148169043033562264 0.039504885285461040223 -0.23929625186910702395 0.12683212759501749645 -0.047810533206978089726 -0.10533678197007326216 0.09355179953728630371 0.24333637950077424694 -0.19388222610607444563 -0.28630777110239868932 -0.054496191925138957879 0.27686116620543343991 0.16402900175012458117 0.022799313994070400519 0.22238974166699124191 0.2577921337326349871 0.22626130413569167654 0.30677631787117026763 0.10022211562392170647 -0.21879653393158918218 -0.099913682750412582956 0.19710147378095013715 0.24827350796404534794 -0.1127113186295700259 0.19833932693364519917 0.31475668246224725033 -0.18408989556688695743 0.045454345059313491784 -0.13318450031008269296 -0.00098754557085700429148 -0.0092913128444661596816;-0.040885727228831478253 0.2709620846828340035 0.029298955619047023502 -0.11580733524756758879 -0.046335006320189997542 0.01579162099840264108 0.058533870180167396624 0.090804259026858957782 0.2044067847876731292 0.10537603970856558588 -0.022339782815922359926 0.16345232053701733155 -0.25055225999422814365 -0.093365228137899963778 0.28967522881499024878 0.030711534689948798149 0.057957422254735047051 -0.27474558740642235355 -0.067962463229185310354 -0.21041820789908793898 0.22279784729927662457 0.18330846952711438158 0.26430564857181615412 0.13110743797153431855 -0.17205019728562093162 -0.11233188458662062004 -0.069539987645508047343 -0.0056304081221431427628 0.023368024057133139626 -0.16167789132424315035 0.16920662534740604777 0.31131518740841396253 0.24332036966042719373 0.18283505841171576733 0.1906628667514204678 0.39187363436854005805 0.11009916435541919344 0.051380497993612092578 0.27309753526901842102 0.074161262288472459825 -0.0090747611474625931166 0.26005123705360022601 0.1137220976563878827 -0.077577528073271728726 -0.17579862896399614525 0.18348308839128876779 0.18944303044572538552 0.099102467344135136695 -0.084491070253231354004 0.15127784073176428481 0.12763707058094370117 0.089828606499653199102 -0.28296300580418271009 -0.28572653625798288823 0.081706786838058820255 -0.0034858599772826970482 -0.29648291737463233764 0.09878049383997683508 -0.047404100125541200061 -0.04074031482931859266 0.0037750907606995997082 0.1954493111167768804 -0.20456611000410812595 -0.30078926109457210236 0.10595597168332658577 0.045876757998168982144 -0.07414246190018042304 -0.083110473298286857702 0.16823249145535565385 0.14327757517274355981 -0.17464284525001064208 0.18209192549193220501 -0.022534886154496714533 0.16010760549756974935 0.11842980021811874702 0.1845761788547103377 -0.28233681219477019253 0.10886879879558038209 0.092080872295422902529 0.13074986088459475408;0.0065244285857663395986 0.29072754940500955545 0.1616485804919394198 -0.10754366000323654917 -0.14133067494156445476 0.037596431301072631703 0.21463361176977810429 -0.094777378671494119655 -0.10108839521790624616 0.10028335266726533248 0.099250081536884582345 0.010698019238935587913 0.14448038042134697667 0.1304518054961242568 0.22710936168405515545 0.13362489897000506822 -0.2503333903585974185 0.08615231210521481775 -0.15029439121265622537 0.017748931301978999875 -0.25184992123489557958 -0.23571954461802724357 -0.26788834032980374245 -0.053449104035126794587 -0.24745040792163836008 -0.28628459498987895993 0.18606765612446909963 0.24055317311982507555 0.28498055133298366703 -0.16543506941926233722 -0.050092371617407510653 0.1439320762790462227 0.26543535523957156874 -0.23259036481006714614 0.13392138999880234818 -0.1129235927577985632 0.061491422493779562819 -0.13848813130109685621 0.085156468814172450732 0.16664800705602070274 0.052401689058586262138 0.18532554727246688953 0.13180089750153947681 -0.21570037555007748331 0.24921711858034298337 -0.079742960954949704266 0.0031577309066154815587 -0.057515214690867649816 -0.10980486669425985891 -0.077954881956669927479 0.0091582694877343270162 0.23224470796187285382 0.12485030683682742103 0.041971235036869676549 -0.18440608043131534455 0.13664997652433802378 -0.038013153235354750492 -0.1865169128313227398 -0.083663127592593131143 0.20375177784467440878 0.098873523049753636593 -0.24213058727053540786 0.17764610795168900292 -0.067128351581440134921 -0.14890290989062113236 0.18417756335158635972 0.30616300534381751808 -0.01806415653091151402 -0.1982682763555019545 0.023168354924412343926 -0.21004794430359693957 0.29238368093632688405 -0.20842903867661530248 -0.083540796512046669453 -0.21512494648016344811 0.27592925789794120472 -0.23305990029041379064 -0.1987226709908081479 0.25809695741782717748 0.050494374214027158698;-0.1617490263715162524 -0.1262306207318372453 0.071480909769125647313 -0.18943060164474370688 -0.16585175514363842408 0.12636060076674851538 0.23740014794538666365 0.15418286380395190838 -0.2593554701861570666 -0.056912513479063765731 0.081698421954168598536 0.16012487864707591889 0.25204191288474003807 0.030502742062036743154 0.0038354382258178605462 -0.14343262933291434091 -0.16575622900918177138 0.16941201613197767739 -0.0038126915056204222637 0.31172557992652782932 -0.013114454334572893043 -0.087137423346763900889 -0.13355300088168345352 0.19766514382174266151 0.11481611741754560452 -0.077158264908930837556 -0.20639329696651584345 -0.18021298222447512671 0.17201111894497220223 0.10884069142896114768 -0.17749177239370003689 -0.084284084458950497831 -0.24077619852593093452 0.069730201773494218664 -0.015881858062801991471 -0.068779121309836654952 0.057662643627509169164 -0.10268133090610832847 0.041785918887364874308 -0.13437378816622089217 0.24443982816278589376 -0.11202844660614844075 -0.26220560363171407925 -0.23715500626143803942 -0.028543352350953468677 0.2049153611391191232 0.023908244139562832148 0.026683054864478156915 0.0095573478780160252277 0.12082805300006746463 -0.010573007578744070614 -0.12330031750771655585 -0.026658984536367325707 -0.20742872158497110968 0.098283848235714149633 -0.23492645974708975531 0.21219942573373340444 -0.22733041656917737927 0.025499122940962289791 -0.2770562702175046188 0.23943643011847828839 -0.21002715396629825784 -0.099824928438570673106 -0.28225508465652182633 -0.1153200853724162811 0.056396313797071190299 0.18804068033711429653 0.13679739482510425153 0.23934085180212455457 -0.1921133348063793489 -0.24561575279601488564 -0.078701201427162512103 -0.047444439295235785181 -0.13388942215567617433 0.057001568454563708577 -0.24139404435627284662 0.19226326837995319496 0.22922223825812901299 0.12156866198070963303 0.26146351292869812744;0.065088714453503740409 0.17400247087120607192 0.088544070157320367565 0.049110443294506263279 0.14120351791443749856 0.093783003169152320821 0.20920299399669994855 -0.051076259423911314628 -0.12253040801218276212 -0.085686931658268947198 -0.051208599046860529824 0.030855206164852239104 -0.2278297492564719251 0.15054348460934927068 0.056277673126711807994 -0.21273487347287561855 0.025760300413059503133 0.2138635092472463417 0.22543407227882872323 0.018585139941002287028 -0.1733467483168104617 0.31382176530367739131 0.055559240172864773899 -0.13067166460795143212 -0.015409616474923035906 0.051701148613466529902 0.23618881121690504798 0.15579391302517445195 0.15770514827732828866 -0.16220850650838986029 -0.31491981371270177936 -0.035147088283732488834 0.14069071188368176273 -0.25171370114097779691 0.14060563636402673149 -0.041495082786805602415 0.054430038389835330714 -0.16714431732986709256 0.13983593940600186345 -0.21675702888822936942 0.14480211099296211308 -0.066593111033254270836 -0.21997034438027787684 -0.20838511024627176527 0.19508231206248868861 -0.14527062806979210152 0.16536427356163629909 -0.16042362821995642674 -0.011638868995780517201 0.0023980035327543433588 -0.12846683227470057087 -0.096817545004402427722 0.12336826606882540791 -0.2331226368661040993 0.22360717727385120979 -0.0063658648127237022971 -0.20742370019191710973 -0.11378191347540854428 -0.22942571589188270886 0.028384956210998731757 -0.030245154516899561137 -0.24106728046792255671 -0.019271408377342719859 -0.28345651413878791836 -0.2107489847316200704 -0.240210157515061834 0.10369629214615805335 0.18270892133903238186 -0.061144519654486542692 -0.10562408444551971143 0.029318705861916694727 0.16799782483661609978 0.27560432033597676016 0.17245439419807526149 -0.22986777553717191447 -0.18349722996250611429 -0.28645499798473345043 -0.23384334748129295689 -0.21371700321796985311 -0.33503216518478962094;-0.054941383086567867344 0.12600352928697172716 -0.18284032632179028632 -0.22837667579720111188 0.19195379350057256707 0.074523212280802858531 0.060041727329193134155 -0.24924977658281827209 -0.010117922342997532834 0.12633369026707438887 -0.1813539334963134575 0.14883488614922121829 0.068240288978082791482 0.001904418253750823041 0.24186443504843710417 -0.28737079404992932341 -0.24201465936779667509 -0.13741781309785408571 -0.020744314880665578466 -0.30158312526432295986 -0.2171682007270382686 -0.068539297596123593959 0.16375496353567917107 -0.26441049694368051748 -0.02932434298763650013 0.027243463036589744136 0.1607347940427042432 0.25004476684163912115 -0.0054914687744224508631 0.063821737810994372264 -0.18459447602050749193 0.046738400315049756506 -0.18338085695240277651 -0.19386255378182634668 0.091332797190098902185 -0.027729326352692394708 -0.22933022169456759864 0.12001242445725376906 0.20057055392188588572 0.081929555337902096324 -0.16035978809854201099 0.039575791290431670821 -0.086387920257949182834 0.24303375703257359963 0.21919815143748039299 -0.22942724016945800769 0.15273693113598146853 0.14501241776309709008 0.035050092549160589972 -0.079206056626045726055 0.16566127809220132505 0.099632021887048449749 0.14692260798826167756 -0.20003958389226142445 -0.13227609069546633624 -0.26485511067409694963 -0.20807631989726269039 0.29531438650347557884 -0.16357413706599599479 -0.10829714844420980369 0.095379497623399284167 0.012169807639515818273 -0.017341434010023526469 0.29311446589479034364 0.18141704853411619314 -0.03224602485676723862 -0.087412553380455990104 -0.18704627627564068826 -0.012489480278106491681 0.22600510372663654146 -0.016968505350069548049 0.30378319420792304628 -0.25064586929578375196 0.076500369210233593043 0.13340114282799436785 0.27494035787352749667 -0.14844792915769020047 -0.046552868939517537406 -0.027094252336445266705 0.1939689840488698358;0.1970823092722117087 -0.15744924837953966357 0.15373536611043059352 -0.063316613612813682499 0.15614799975328935711 -0.17741198094285220987 -0.013161156948662253163 -0.15651280640944487121 0.18169043077022564714 0.12880047256214069429 0.0072976596662414202829 0.28022870546862999053 0.026376190783368141934 0.040774754675131814896 0.22224004070416564227 0.22172861438244531596 -0.1613450526502803184 -0.059651674835738674463 -0.079745025419153584001 -0.23149607179745274044 -0.15557107263372160766 0.20887584028243819101 0.034259767619867202704 -0.16203598243469152784 0.15081912620075174636 -0.10881804476660379699 -0.10967987547862975695 0.0055446388017769097922 -0.018394196900067494305 0.22868777816753557697 0.18651875757855634896 0.12296505177256708552 -0.236845480207710124 -0.28100310211800161309 0.25298100854303628982 -0.23932952262106568786 -0.028832543672842228522 -0.28400261424869988058 0.18963314848336243479 0.10921869471578121713 -0.21794200688184989234 -0.022177524572397480651 -0.18707561532413605199 0.076744179040449819751 0.068408159999465797951 0.09065395900778258631 -0.06737380158691382015 0.14226358943131592327 -0.27773791190807733953 0.08301938891269584897 -0.070479461949357724571 0.2306022342369462852 0.1188130638691165808 -0.22524142533838706348 0.15988079347699313271 -0.23342996257560905127 -0.11152823808229490876 0.027967501046824067706 0.22821678154221125556 0.24543718135585623763 0.015852622977769195711 -0.13222119927731673661 -0.16812532700062110536 -0.079793211545228379111 -0.095098956556443459132 0.098319404568435492253 0.074160137362001332662 -0.12660692917353358333 -0.20775608522777808118 0.13811354142111501031 0.034942484272656136601 -0.17677595527706543854 0.26663746956283912448 0.13515175043891616835 0.18856737878524509888 0.099497205602450428108 0.087728531589577579686 0.24556133103389815586 0.19502546414446694789 -0.23654476468838764314;-0.10645185556774292013 -0.084395690388002583826 -0.26477129498504992089 0.21709160689824744117 -0.13297125882972596345 -0.21309357174385926137 -0.25738096562625439878 0.084358899903127851361 -0.26052196645612507586 -0.010120945657893846287 -0.22571629190290345979 -0.19670090207728321841 -0.11386245058077913705 0.026089450832375061379 -0.28986040055263351256 -0.13859047342878033637 -0.094189978197180321273 0.095754586332672725346 -0.049798266319248142564 -0.17089452405919119959 -0.088548311244335875525 0.25901408363896349929 -0.27376773031843454342 -0.0963766580190317107 -0.2565769848515339624 -0.27010752251388625567 0.10730335974608470884 -0.24744841044715712441 0.17684092400899761865 -0.018328298785513449237 0.16225840420212239712 0.054882998839104968347 0.13226211961998560196 -0.031578810906010106041 0.036030190696761096869 0.040540650059895183555 0.24172848635854060628 -0.22445559230954120755 0.045728063168949617534 -0.26422161825372891819 -0.023160077137281822462 0.10270305706696003512 0.18243841594808651863 -0.11831049574551331938 -0.19660464928403525997 0.014638696153880706441 0.094059648261307415851 -0.1379429316646989534 0.10580030166796401681 -0.26799948019382668907 -0.015917125062653626061 -0.31599335592464283806 -0.15226517215568530217 -0.22445239126566179921 0.097731206839134360242 -0.23249888218805034312 -0.20746380657459612129 0.21941958369871544798 0.18781248322355525993 -0.26100624202870409407 -0.057895766338184571909 -0.15318867161762536599 0.27964541156566530278 -0.045781674472029007528 -0.091439179808395221194 -0.086202009665417286821 -0.15922125076386325904 -0.10127526878703650703 -0.12394385041393515823 0.25773323266775538531 0.026164122246670858812 0.04780831629940863331 0.10785832244474183317 0.11155870249339491784 -0.09915453150007891292 0.1849895906554431535 0.13192583365918217342 0.10339697788834842362 0.049275345221590459432 0.27023730710422455559;0.23551904041769916587 0.29464337221519831811 -0.13406974037766314356 0.20623232106212682768 -0.046149349135675400702 0.13168924811575918876 0.22394172008049345601 0.041887813287152048103 0.21096608427066518288 0.011935889123466372416 0.046104794885228485291 0.23466628147984922026 0.27668299253979167229 -0.096480853243649508655 -0.2119233275532564631 -0.13688814735611815054 0.15908816369456846296 0.051569357152678282907 0.194892481032183984 -0.16083729312036126879 0.12326469405568996063 0.060069108663232471945 0.14547994036908432069 0.21670256808872701004 0.13260581940008028812 -0.21005630109254319615 0.1544496342887437812 0.27074566041332842614 0.049662563131940798411 0.10080736026406002248 0.27528787590434899979 0.23732960144166065364 -0.23394854299952433374 -0.12529585827184802627 -0.18534756558674794769 -0.11008089042413064795 0.10623890503805946683 0.22863686170857394631 -0.15379287740196101453 0.015238613947573248844 -0.039023507096196750898 -0.06662653662725497028 -0.12736660553234963045 -0.13644261480360556082 0.070893254583303103034 0.20869773463570981398 -0.18021048344662785046 -0.012452559559585640175 -0.14030128003856148777 0.30690766276690412129 0.17492134768523806554 0.28796313722042504724 0.25239434403300159415 0.0098733588638135489496 -0.095402494287581657284 -0.022812843675522023051 0.23238040256886760559 -0.23515157590268639942 -0.027416806925324187227 0.21133551422851343249 0.26879964288373708881 0.20094055958615147928 -0.071735238041131202391 -0.15455609067681283508 -0.2381861163948245097 -0.19313457741618889063 -0.13936628380315044251 -0.15174751173956871342 0.1693216740717692903 0.1465255274168760502 -0.0094013343400319755727 -0.23503561615641657689 -0.18734220827549744048 0.013996574729685049704 0.056055557598210292714 0.037467765916263821857 0.1410809353514336506 0.087756156528968468078 0.080742982574453808775 0.15494792617049990557;0.083652442589383091409 -0.12656839469603198278 0.037316995083628456964 -0.10739860608627352367 -0.081334533686641910522 0.12512539643748399332 -0.14411266992654228614 -0.19794736761872383513 0.24613588648715359342 -0.22270919904756664165 -0.29164606439818324679 0.12920096177418766148 0.082551488490736138481 0.016849720928481023291 0.21659785500891334808 -0.17520332610283576025 0.11856939003710922909 -0.066467779680472557913 -0.10148197262340355462 0.084442973655642003528 0.23210311462670235594 0.041807584580177477307 -0.15781644014651263763 0.052723485897220485896 -0.14500812681670238735 -0.23874822131271777881 -0.1094644071114837941 0.1007085308736821172 0.097464256833113924183 -0.15410480689681468891 -0.060096412943841506782 -0.19732280715014394179 0.12698442820670319264 0.054372029526835917446 -0.27500721829404434216 0.13098365362416564128 -0.081590735398849992266 0.21235379153535466346 -0.10216491773974167856 0.034227225493332638639 0.17466854513729990206 0.073368879237079728806 -0.22191008259952227366 0.0063004304441328529834 0.23144946595193285899 0.22544515877272208737 0.29973629079647645668 0.161511375853739092 